3950 50
</s> 0.008005 0.008839 -0.007661 -0.006556 0.002733 0.006042 0.001882 0.000423 -0.007207 0.004437 -0.008713 0.002499 -0.001503 -0.001914 -0.006631 -0.003764 0.005159 0.006051 0.005938 0.003195 0.003090 -0.007605 -0.008192 0.009939 0.007603 0.006180 -0.001208 0.008031 -0.000990 0.001469 -0.000298 -0.005966 0.002625 -0.002675 -0.007651 0.009508 0.008759 -0.002190 -0.000452 0.001018 -0.007275 -0.008014 0.009109 0.000126 -0.005165 -0.006084 -0.006153 0.003394 0.000403 0.002662 
， 0.113501 0.207646 0.515330 0.154878 0.187407 -0.096602 0.302152 -0.002350 -0.497530 0.424525 0.069853 0.187061 -0.161897 0.015993 0.088606 0.076817 0.194997 -0.120604 0.080879 -0.237435 -0.492276 -0.172231 0.216181 -0.203150 0.097514 -0.406500 0.075486 -0.169604 0.049089 -0.327166 -0.092739 -0.396821 0.027513 0.320771 -0.069925 -0.150558 0.017557 0.152633 0.253029 -0.513981 0.170854 0.284572 0.210403 -0.019210 0.180584 0.491785 -0.099993 0.072068 -0.037118 0.321292 
的 0.298571 0.319511 -0.035131 0.014302 0.112980 0.146881 0.066870 -0.120420 -0.385706 0.447512 0.514505 0.259414 0.115956 -0.034371 -0.318422 -0.059359 -0.010265 0.051982 0.097432 0.082197 -0.158069 0.013376 0.653204 -0.064627 -0.009251 -0.238087 -0.069769 -0.105415 0.040853 0.032518 -0.025204 -0.211334 0.153400 -0.257422 -0.023910 -0.183525 -0.031161 -0.180501 0.025532 -0.215104 -0.154741 0.217436 0.026321 -0.420611 -0.328850 0.361645 0.313353 -0.386902 -0.206302 0.255919 
。 -0.162755 0.488360 0.373414 -0.374654 0.001197 0.283979 -0.077957 -0.184590 -0.352734 0.402143 0.229010 0.397378 0.218533 -0.399545 0.131259 -0.108595 -0.540073 0.534310 0.174603 0.031000 0.280111 -0.194704 0.416489 -0.064818 0.050692 0.387421 -0.171137 -0.122301 0.330874 0.170581 0.099145 -0.682732 -0.047715 -0.190324 -0.174877 -0.474976 -0.078989 -0.079975 0.592267 0.088957 -0.185150 0.017889 -0.042026 -0.265000 -0.100954 0.466360 0.569733 -0.155097 -0.317149 0.283706 
一 -0.051708 0.445321 0.084596 0.042000 -0.739087 0.040499 0.176412 0.470370 -0.331175 0.367050 0.288864 0.562614 0.462175 -0.326434 -0.103832 0.592651 0.403043 0.092863 -0.609373 -0.091113 -0.508609 -0.358737 0.216563 0.676535 0.183867 -0.057975 0.460280 0.060143 0.741627 -1.052610 -0.098075 -0.482566 0.168699 0.134102 -0.345497 -0.281081 0.718992 -0.489815 0.392300 -0.744468 0.321069 0.670173 -0.009926 0.333002 -0.033961 0.098378 -0.145737 -0.049145 -0.828999 0.254641 
、 -0.033569 -0.653296 -0.005145 0.001844 0.581218 0.757213 -0.954922 -0.611713 0.192485 -0.934384 0.764450 -0.138125 -0.025932 -0.400400 -0.487565 -0.175075 0.098711 -0.230613 -0.042772 -0.269657 0.974947 0.662291 -0.429399 -0.420619 -1.081785 0.263912 0.596902 -0.070923 -0.047461 0.566405 -0.075821 0.203660 0.055034 -0.683509 0.356579 0.594776 0.098539 -0.865290 -0.763974 0.562027 -0.575301 0.365077 0.193768 -0.318428 0.184841 0.445005 0.617410 0.503054 0.321686 -1.183918 
1 -1.267040 0.428378 0.774151 -0.455463 0.814848 -0.280771 0.977809 -0.279817 -0.425235 -0.140027 -2.218795 -0.013319 0.368400 -0.121306 -0.512440 -0.092168 -0.367061 -0.013274 -0.607282 -0.451935 -0.400501 0.515811 0.281561 -0.678135 1.165332 -0.356066 -0.542243 -0.707291 -1.636895 -0.811258 -0.572890 1.249438 0.429612 1.410507 0.873577 0.911045 0.550218 0.701637 0.827020 -0.018621 0.803038 0.085001 -1.050771 0.228554 1.629261 -0.913437 -1.514720 -0.069862 -0.723470 -1.192394 
人 0.134034 0.821490 -0.057772 -0.286441 0.638091 0.146337 -0.014840 0.875090 0.030919 0.572250 0.650226 0.541055 -0.272508 -0.262574 -0.115998 0.497876 -0.417917 -0.618834 0.879885 -0.146100 0.304898 -0.489208 -0.024210 -0.452038 -0.003238 -0.371000 0.060578 0.173585 -0.018564 -0.305622 0.028127 0.105237 0.141337 0.198375 0.206867 -0.179794 0.100583 -0.382219 -0.468376 -0.646247 -0.060814 -0.189310 -0.854700 0.376000 0.247888 0.685565 0.545254 -0.623106 0.120763 0.340813 
0 -1.047320 0.743163 0.630404 -0.799925 0.885864 0.492112 0.860157 -0.189267 -0.055354 0.349574 -2.378402 0.057055 1.129089 -0.723059 -0.325180 -0.042174 -0.104488 0.403660 -0.151647 -0.299964 -0.361383 0.624909 1.325168 -0.222553 0.805227 -0.648776 -0.447425 -0.446295 -0.834040 0.099106 -0.803371 0.869274 0.639940 1.340804 1.065871 0.386832 0.236752 0.177447 0.546118 -0.039065 0.820797 0.032445 -0.788875 0.518447 2.289181 -0.946154 -1.329672 0.035601 -0.591561 -0.727636 
在 -0.022695 0.125853 0.051393 0.114087 -0.032522 -0.136330 0.249492 0.191595 -0.714611 0.139319 0.003837 -0.014949 -0.136936 0.131623 0.412246 0.179513 0.120407 -0.548455 0.111365 -0.349823 -0.394454 0.115061 -0.150916 -0.265460 -0.613179 -0.813988 -0.006173 0.139881 -0.134469 -0.606405 -0.314668 -0.097657 0.043005 0.277786 0.024492 0.312149 0.125442 0.072661 0.348949 -0.537360 0.179239 0.446020 -0.174214 -0.262363 -0.024997 0.105446 -0.165736 0.305659 -0.104765 0.416896 
“ 0.167874 -0.056327 -0.435368 0.049798 -0.152340 -0.387972 -0.356162 0.454666 -0.004647 0.244194 -0.119885 -0.092997 0.022998 -0.002145 -0.046994 0.588117 0.266706 0.219487 -0.064902 0.259027 0.155628 -0.313795 0.604703 0.070358 0.276896 0.374842 -0.213188 0.259341 0.289979 -1.100765 0.569374 -0.036008 -0.097484 -0.514409 0.080911 -0.218707 0.710179 -0.182501 0.650777 0.064076 -0.802242 0.221834 0.416955 -0.075311 -0.030389 0.205550 -0.189150 -0.715810 -0.246020 -0.064463 
” 0.267502 -0.172019 -0.261214 0.082263 -0.527242 0.039781 -0.724170 0.262881 0.223872 -0.157201 0.111876 0.291453 0.189829 0.033538 0.118251 0.863021 0.350897 0.464904 0.080454 0.333841 0.310705 0.007587 0.274541 0.045500 0.080953 0.407345 -0.484246 0.017594 0.316427 -1.008483 0.262655 0.045091 -0.133730 -0.785175 -0.017819 -0.152803 0.503459 -0.651003 0.106856 0.388203 -0.704605 -0.093385 0.258735 -0.310048 0.037707 0.156198 -0.019937 -0.304168 -0.119423 -0.097740 
是 0.571885 -0.237581 -0.317512 -0.554124 0.378189 -0.212195 0.668599 0.354014 -0.470304 0.746698 0.372854 0.366643 -0.168692 -0.122788 -0.287793 0.414426 0.630070 0.173079 -0.056493 0.369594 -1.083524 -0.765352 0.931179 -0.068635 0.470886 -0.065698 0.380503 0.227267 0.321551 -0.549392 0.129054 -0.419660 0.055798 -0.388656 -0.543791 -0.588567 -0.382577 -0.004067 0.022338 -0.369276 -0.436929 0.601673 0.626559 -0.143166 -0.013776 0.670955 -0.011121 -0.173209 0.196803 0.376429 
年 0.121254 0.510325 0.083279 -0.335646 0.399192 0.139537 0.799278 -0.296345 -0.770240 0.231817 -1.203618 -0.515208 0.115351 -0.033600 -0.472113 0.453029 -0.058262 -0.232392 -0.155345 -0.039395 -0.421784 0.411509 1.405483 0.073906 1.305384 -0.762853 -0.265667 -1.273903 -1.142455 -0.274389 -0.248193 0.610907 0.381547 0.851817 0.479836 0.093967 1.271449 0.322987 0.743177 -0.451596 1.136037 0.731102 -0.869081 0.342445 1.001262 0.022245 -1.353527 -0.105414 -1.221617 -0.455841 
了 -0.092731 0.129868 0.454345 0.025250 -0.198366 -0.267616 0.462237 -0.128216 -0.204071 0.772570 -0.208116 0.370326 0.042393 -0.021951 0.391143 0.310263 0.343821 -0.208417 0.128654 -0.003369 -0.076245 -0.138426 0.365157 0.131308 -0.432534 0.125926 0.060712 -0.188382 0.257750 -0.589000 -0.068921 -0.355965 -0.157947 -0.033665 -0.149774 -0.664550 0.559282 0.061184 0.538708 -0.699459 0.305798 0.125674 0.007082 0.468403 0.376032 0.383069 -0.072216 0.269504 -0.070434 0.697216 
2 -0.969459 0.366968 0.407719 -0.324871 1.026354 -0.200550 0.701014 0.056221 -0.176575 0.007010 -2.603937 -0.558965 0.565559 -0.501168 -0.413020 0.032757 -0.370105 -0.070738 -0.748487 -0.338342 -0.453746 0.638963 1.056629 -0.290114 1.163569 -0.572269 -0.832688 -0.772297 -1.289778 -0.356005 -0.380779 1.161131 0.871027 1.180591 1.123399 0.978699 0.301158 0.213531 0.831937 -0.030427 1.038262 -0.080549 -0.968667 0.456006 1.321784 -0.788454 -1.383542 0.287211 -0.850538 -1.074363 
有 -0.063754 -0.431034 0.121010 -0.439805 0.933595 -0.340856 0.458636 0.547941 -0.623765 0.642830 0.595390 0.119357 0.331168 -0.162348 0.219962 -0.073662 -0.163463 -0.257178 0.488687 -0.251080 -0.576902 -0.261438 0.562525 -0.296593 0.260428 -0.624608 0.160241 -0.142952 0.682515 -0.195691 -0.053873 -0.552506 0.188738 -0.256647 0.071433 -0.700896 -0.405174 0.086607 0.006403 -0.131829 -0.421995 0.330624 0.588149 -0.061566 0.201591 0.690421 0.422580 -0.536767 -0.109413 0.201181 
不 0.447168 -0.193807 0.334299 0.092420 0.260355 -0.575497 0.687461 -0.288401 -0.739452 0.940161 0.492093 0.679887 -0.741834 0.208879 -0.047502 0.214051 0.340943 0.305940 0.037100 0.282597 -0.917872 -0.708513 0.770982 -0.250160 0.097789 -0.417474 0.014915 -0.135615 0.596047 -0.310332 0.667324 -0.594073 -0.295318 -0.586174 -0.786352 -0.285339 -0.526012 0.440785 0.173750 -0.194109 -0.214873 -0.202474 0.664668 0.194952 -0.108960 0.615175 1.050851 -0.582476 -0.087997 0.861978 
中 -0.179978 0.206186 -0.538376 -0.514283 0.440899 0.239211 0.035488 -0.065333 -0.480789 -0.229354 0.010030 -0.038704 -0.059603 0.459392 0.134409 0.270568 0.153493 -0.632541 -0.078578 -0.846800 0.723389 -0.242483 0.530269 0.197140 -0.179970 -0.177295 0.091878 -0.394737 -0.446918 -0.260121 -0.052832 0.538893 0.565089 -0.039366 0.651691 0.126813 0.266087 -0.203287 -0.340920 -0.131883 -0.627864 0.680724 -1.157117 0.084308 0.202650 0.330283 -0.151685 0.504566 0.054052 -0.682075 
国 0.217886 -0.000766 -1.274815 -0.449273 -0.335812 0.820419 0.740063 0.533387 -0.054359 0.005080 -0.401551 -0.513419 -1.169534 0.288510 0.422478 0.204683 0.010713 -0.760698 -0.117043 -0.922403 0.696384 -0.263140 0.684562 0.858325 0.068095 -0.929206 0.028502 -1.218964 -0.767898 0.242183 -0.219739 0.085468 1.705427 -0.047125 1.179964 -0.126904 0.515869 0.176098 -0.313376 0.553460 -0.660436 0.019956 -1.104461 -0.956159 0.367514 1.126196 -0.235874 0.410452 0.622813 -0.915894 
大 -0.264568 -0.477745 -0.428218 -0.492111 -0.032663 0.227132 -0.020382 -0.298807 -0.241366 -0.136398 0.626632 -0.503010 0.233853 -0.577970 -0.226099 0.087445 0.558746 -0.487598 -0.014946 -0.391901 0.352807 0.349414 1.287493 -0.204002 0.022724 -0.221870 0.350543 -0.183648 0.194882 0.133648 -0.850349 0.030891 0.433652 -0.081299 -0.079698 0.287758 0.495180 -0.521898 -0.376613 0.257657 -0.114268 0.637886 -0.587534 -0.157241 -0.213091 0.249904 0.387237 -0.231011 -0.368801 0.504247 
为 0.100197 -0.070714 -0.262189 -0.468807 0.035367 -0.233457 -0.437873 -0.057436 -0.020262 0.089775 0.053329 0.136823 -0.286856 0.315180 -0.104236 0.294928 -0.249081 0.195665 -0.016789 -0.402590 -0.746985 -0.241408 0.719795 0.307666 0.401661 -0.412201 0.100000 0.053430 0.179684 0.160620 0.329031 0.006566 0.142580 -0.122403 0.619962 -0.495084 0.019909 0.344071 -0.190244 -0.031368 -0.304409 -0.133761 -0.041395 -0.651097 0.044950 0.806104 0.045834 0.040851 0.425120 -0.213804 
上 -0.573857 0.024664 0.962208 0.248118 0.428133 -0.606576 -0.105358 0.299947 -0.653747 -0.191375 -0.288018 0.084608 0.613026 -0.185563 -0.102178 0.204092 -0.057424 0.044212 -0.606615 -0.203771 0.096233 0.149593 0.065628 -0.307778 -0.159984 -0.476697 -0.188689 0.023563 0.041880 -0.443329 -0.300779 0.144109 0.323295 -0.003007 0.239830 0.177546 0.306059 -0.091583 0.482074 -0.441164 0.283142 0.827581 -0.492209 -0.265887 0.176837 -0.499848 -0.347808 -0.209684 -0.295822 0.605683 
和 0.149413 -0.415949 0.109983 -0.303634 0.280160 0.442406 -0.210364 -0.043555 -0.153958 -0.108908 0.822364 -0.171709 -0.091249 -0.421455 -0.745981 -0.231846 -0.374842 -0.521700 -0.107250 0.341359 0.507511 -0.298488 0.401469 0.133382 -0.053279 0.343332 0.255455 -0.216030 -0.163526 0.242288 -0.208643 -0.076924 0.417813 -0.213464 0.232559 0.125391 -0.214095 -0.350866 -0.491312 0.542305 -0.108785 -0.216140 -0.215130 -0.409236 -0.181773 0.992550 -0.011816 -0.025864 0.802514 -0.559283 
时 -0.297149 0.701686 0.777272 0.696926 -0.348002 -0.640006 -0.146800 -0.205923 -0.779139 0.584933 -0.053190 -0.118989 -0.276500 0.679256 0.518722 0.560710 -0.344287 0.843434 -0.153842 -0.282965 -0.880064 -0.494499 -0.320044 -0.599421 0.297350 -0.756055 -0.167311 -0.279528 -0.214976 -0.812993 -0.167542 0.363608 0.189602 0.636828 -0.446673 0.711013 -0.267165 0.306774 0.367133 -0.454680 0.437984 1.005434 -0.356926 0.973479 0.096830 0.350835 0.338846 -0.208782 -0.713398 0.377184 
发 -0.928481 -0.270071 -0.164708 0.559359 -0.401623 0.103920 -0.266563 -0.540649 -0.702669 0.113159 -0.394306 -0.318446 0.325696 0.579275 0.372576 0.707433 -0.196892 -0.571296 0.307582 -0.231695 1.829916 0.076441 -0.233660 -0.195408 -0.184895 -0.081283 -0.064797 -0.927551 -1.018482 0.207334 -0.802673 -0.005846 0.210489 0.087008 0.000877 -0.464122 1.002054 1.062220 0.169584 -0.257454 -0.078124 0.317318 -0.430195 -1.385627 -0.096060 0.480275 0.272559 -0.231398 -0.421341 -0.337967 
会 0.175275 -0.027635 -0.372712 -0.006584 0.524386 -0.051071 0.658870 -0.068038 -1.195498 0.769894 0.577844 -0.613928 -0.222408 0.061615 -0.278725 0.873439 -0.373638 -0.944743 -0.440378 -0.139159 0.678002 -0.765277 0.420131 0.025242 0.480233 0.179416 1.141735 -0.874152 0.090627 -0.381065 -0.308991 -0.031010 0.087301 0.011052 -0.087997 0.323328 0.966341 -0.357484 -0.628306 -0.208938 0.236874 -0.142648 -0.511891 0.261214 -0.661981 0.868916 1.203469 -0.498664 0.044823 -0.312291 
日 -0.886401 0.257338 -0.125871 0.363037 0.500920 -1.323756 1.137097 0.236043 -0.767253 0.092001 -1.445164 -1.020758 -0.721099 -0.033681 -0.576325 0.092957 -0.655689 -0.386019 0.337967 -0.739820 -0.091548 0.526591 -0.687827 -0.230708 0.755120 -0.435606 -0.650199 -0.558008 -1.353353 -0.331318 -0.249967 1.715673 0.848009 1.211813 1.172514 1.243656 1.140565 0.636605 1.043058 0.113473 0.767323 0.666014 -1.242905 0.440115 0.315113 -0.143952 -1.641386 0.026272 -0.349445 -1.043009 
到 -0.277247 0.684416 0.952720 0.190679 -0.059908 -0.404850 0.856784 0.266386 -0.768308 0.753263 0.191895 0.156857 0.312765 -0.484224 0.210420 -0.164500 0.217801 0.242591 0.367878 -0.149365 -0.157076 -0.249673 0.459655 -0.508088 -0.576462 0.059191 -0.164543 0.276730 -0.506033 -0.528330 0.046841 -0.294888 -0.245035 0.709166 -0.041892 0.175161 -0.268489 0.148149 0.325600 -0.983949 0.058103 0.522728 -0.346670 1.170911 0.331034 0.194305 -0.371089 0.296159 -0.234033 1.243401 
生 0.742380 -0.837827 0.043650 -0.458193 0.242787 0.170907 -0.509411 -0.545672 -0.110377 0.526124 -0.203844 0.992546 0.162895 0.150872 -0.158837 0.490248 -0.108010 -0.339036 0.051228 -0.052678 -0.318815 -0.450376 -0.740109 -0.092142 0.726096 -0.455591 0.152834 -0.140994 -0.629570 0.536188 0.188955 -0.911886 -1.271872 0.260576 -0.024323 -0.523549 -0.219082 -0.740064 -0.745994 0.038729 -0.691618 0.652341 -0.778780 -0.523744 -0.008867 1.307597 -0.358093 -0.678568 -0.351255 -0.870763 
个 -0.197648 0.066251 0.667317 -0.050422 -0.172090 0.552524 0.222536 0.766976 -0.340765 0.351947 -0.289896 0.770097 0.493736 -0.122152 -0.415241 0.037601 0.537677 -0.191218 -0.105636 0.197957 -0.652444 0.073992 0.784043 0.164925 1.075320 -0.125015 0.493288 0.047746 0.369627 -0.614208 0.060320 -0.268130 0.277053 0.194729 0.074840 -0.054095 0.429932 -0.768166 0.439146 -0.669081 0.506320 0.646132 -0.707633 0.252959 0.461847 0.296813 -0.219924 -0.461415 -0.761009 0.261437 
这 0.245964 0.206340 -0.394973 0.387334 -0.098474 -0.581518 0.993718 0.899410 -0.546671 0.571110 -0.182962 0.422755 0.329167 0.141393 -0.171968 0.454294 1.066810 0.333968 -0.131879 -0.187555 -0.715536 -0.563260 0.997713 0.062435 0.407884 -0.125903 0.091778 0.069599 0.515598 -1.456855 0.575879 -0.701260 -0.251363 -0.274080 -0.528717 -0.932749 -0.246968 -0.103301 -0.076410 -1.078147 -0.259051 0.830971 0.351595 -0.155459 0.059129 0.797198 0.468200 -0.456587 0.007760 0.181138 
3 -1.308233 0.441739 0.906114 -0.853989 0.788916 0.281481 0.794727 0.249870 0.044986 -0.162631 -2.295055 0.225355 0.764160 -0.249633 -0.196877 0.078804 -0.715213 0.672176 -0.627999 -0.355960 -0.581565 0.546136 0.519472 -0.674374 1.189678 -0.437171 -0.544941 -0.410143 -1.348220 -0.614932 -0.429213 0.652070 0.630352 0.933210 0.790505 0.617864 0.337147 0.178284 0.495333 -0.008931 0.649612 -0.087422 -0.711001 0.275173 1.830520 -0.791546 -1.499309 0.190336 -0.136832 -0.977704 
出 -0.345661 0.418850 0.442779 0.411924 -0.318353 -0.413046 0.318719 0.164266 -0.135731 -0.211093 0.473565 0.261948 0.326169 -0.086008 0.099207 0.578864 -0.022131 -0.090999 -0.482463 -0.210678 0.231691 -0.051575 0.564049 -0.228918 -0.346981 0.255939 0.161566 0.285288 0.125955 -0.451344 0.086701 -0.293468 0.695302 -0.118560 0.000911 -0.429471 0.239879 0.044133 0.071161 -0.181106 -0.161392 0.287962 0.508910 0.001098 -0.443251 0.403792 0.210542 0.159970 -0.069926 0.393125 
行 -0.666403 1.146160 1.019127 -0.386341 0.010006 -0.115930 0.036510 0.082557 -0.115875 -0.455543 -0.794486 0.209502 0.391934 -0.174306 -0.259531 0.259947 -1.103658 -0.564579 0.087156 -0.954117 0.540095 -0.662923 -0.074458 -0.259573 -0.558331 0.549170 0.334575 -0.376231 0.360165 0.474091 0.164354 -0.044734 0.263608 -0.244551 1.112424 -0.011953 -0.672541 0.013991 -0.041898 0.375266 0.842180 -0.019392 0.776764 0.140892 -1.095120 0.766778 0.463155 1.263019 -0.790718 -0.669677 
新 -0.763110 0.184971 -1.116897 0.855036 0.027143 -0.471771 0.553451 1.085743 -0.055936 0.267890 0.429534 -0.270017 0.217230 0.433620 -0.627598 0.587822 0.509682 0.262919 -0.877133 0.206098 1.761445 0.171093 0.741255 0.554822 0.195326 -0.143749 0.120510 -1.813397 -0.802899 0.232921 -0.766258 -0.294253 0.542546 0.003388 1.136309 0.434138 0.502541 -0.105289 0.257084 0.664909 0.265767 0.898040 0.341994 -0.679035 -0.147548 0.501641 -0.342221 0.090490 -0.582832 -0.879455 
家 -0.047419 -0.517695 -0.134021 0.061445 -0.378203 0.380320 0.381210 0.635467 0.090966 0.682597 0.566446 -0.235580 -0.405292 -0.487898 0.086475 1.238331 0.179659 -0.681257 0.229707 -0.099990 -0.233838 0.101605 0.195435 -0.270464 -0.200509 -0.530601 1.386127 0.294435 0.221998 -0.068970 -0.385981 -0.312647 0.478012 -0.040443 0.129114 0.740909 -0.089763 -0.427415 -0.929679 -0.690881 -0.190573 0.661224 -0.849102 -0.188510 0.629806 1.301364 -0.234370 -0.115144 0.522344 0.455105 
对 -0.283659 0.115127 -0.040830 -0.275410 0.123102 -0.341756 0.445437 0.631097 -0.378778 0.205085 0.114828 -0.173377 -0.214008 0.223374 -0.123370 -0.078408 -0.472076 -0.743925 0.412412 -0.257571 0.051685 -0.602288 0.192509 -0.032090 0.156795 0.196674 0.066044 0.089125 -0.022106 -0.212648 -0.219532 -0.155583 0.362356 -0.189169 0.386776 -0.265672 -0.495652 0.238488 0.282893 -0.376037 -0.305485 0.084151 0.491201 -0.635603 -0.782000 1.119708 0.707155 -0.032250 0.494382 -0.007338 
市 -1.186805 -1.397639 0.412739 0.554225 0.612823 0.070237 0.039723 0.235536 -0.163112 -1.144479 0.089961 -0.430358 -0.123722 -0.455745 -1.020411 0.503871 -0.240753 -0.966086 0.229006 -1.827850 0.524872 1.070839 0.198584 -0.606969 -0.008317 0.292080 1.191847 0.038260 -1.342445 0.808111 -0.846325 -0.127127 1.288334 0.792479 0.385814 1.653821 0.526096 -1.160646 -0.118310 -0.138435 0.995730 0.317874 -0.019741 0.540582 -0.133124 0.570865 0.752396 0.250507 -0.173751 -0.679576 
要 0.153045 -0.509538 0.952958 0.465398 0.222555 -0.175334 -0.217743 -0.176214 -0.971543 0.652439 0.090465 0.602858 -0.058609 0.044609 -0.252653 -0.251556 -0.248318 -0.714514 -0.910268 0.789902 -0.833818 -1.591671 1.290901 1.029907 0.310062 0.345192 0.327494 -0.190473 -0.166871 0.207824 0.861315 -0.896042 -0.137713 0.045094 0.642359 0.040872 -0.436694 -0.181564 -0.011190 0.105247 -0.602775 0.174937 -0.003692 0.594728 0.235015 1.249405 0.939657 -0.050330 -0.297663 0.586259 
来 0.259107 0.585587 0.059754 0.228194 0.102586 -0.975012 0.528423 -0.212276 -0.901717 0.445135 -0.004838 -0.125419 -0.012344 -0.404154 0.523315 0.446659 0.744340 0.169348 -0.466490 -0.155356 -0.252792 0.130972 0.828855 0.128245 -0.468887 -0.017517 0.038729 -0.150977 -0.154681 -0.081868 -0.159553 -0.292534 0.014148 0.375656 -0.249120 -0.508443 0.162865 -0.044525 0.654690 -0.474833 0.356325 0.633223 -0.321637 0.624837 0.097948 0.849202 -0.412529 -0.097835 -0.208250 1.262914 
以 0.203885 0.720758 0.319630 -0.291471 0.206188 -0.149919 0.593945 -0.195045 -0.023572 0.030186 -0.343384 0.791197 0.378408 -0.361106 0.175860 -0.049718 -0.154577 0.399923 0.015056 -0.497564 -0.377877 -0.251652 0.738244 0.039599 0.391540 -0.043524 -0.268290 -0.222574 0.044557 0.039431 0.049772 0.491660 -0.159533 -0.133689 0.081658 -0.166510 -0.029092 -0.136782 0.144222 0.286470 0.026576 -0.107578 0.670837 0.407969 -0.191803 0.573013 0.781204 -0.082458 0.283765 0.055474 
公 -0.111203 -0.035736 1.069436 0.509732 0.131330 -0.003831 -0.532041 1.087051 -0.358363 -0.951570 -0.721654 -0.169802 -0.307653 -0.702700 -0.691362 -0.728218 -0.980239 -0.776040 0.712133 -0.578616 0.490051 -0.170904 0.144186 -1.190251 -0.739293 -1.169694 1.237344 -0.586248 -0.275515 -0.422758 0.540262 0.096368 1.988218 -0.833503 0.555787 0.857123 -0.100008 0.396894 -0.976078 0.079107 0.271467 -0.422893 -0.200429 0.187282 0.262475 0.948768 0.464419 0.164600 -0.464764 -0.913732 
地 -0.899344 -0.326143 -0.069214 0.083991 0.329331 0.201656 0.548051 0.330967 -0.566302 -0.947358 0.813672 -0.354486 0.476105 -0.768687 -0.134147 -0.329804 -0.230020 -0.501436 -0.461912 -0.077659 0.300386 0.450792 0.175987 -0.354092 -0.124816 -0.157839 -0.499829 -0.362619 0.035429 -0.324492 -1.070291 -1.018704 -0.068090 0.233917 0.015108 0.219934 -0.011509 -0.471627 -0.075971 -0.730797 0.742669 0.094151 1.480067 0.263827 0.264183 0.705607 0.814352 0.613582 0.412925 -0.346456 
后 0.146993 0.292791 0.957587 0.772306 -0.359318 -0.123634 0.540534 -0.452540 -0.441743 0.132128 -0.511318 -0.015342 0.258866 -0.297733 0.773761 0.767962 -0.016381 0.516652 0.479268 -0.014199 -0.177174 -0.281873 -0.427288 0.365822 -0.352106 0.033295 -0.295528 0.361266 -0.249445 -0.428514 -0.543907 -0.056410 -0.107184 0.321843 -0.141365 -0.240179 0.959496 0.532819 0.195138 -0.434662 0.367579 0.484874 0.004032 -0.173259 -0.589347 0.182738 -0.664940 0.340717 -0.521230 0.748601 
成 -0.231507 0.097582 0.034927 -0.237246 0.147163 1.311786 -0.071585 -0.516069 0.625755 0.006078 0.199826 0.121465 0.710475 0.385401 -0.444011 0.518966 -0.173029 0.667518 0.453568 -0.781248 1.047571 -0.122313 0.683965 0.329738 -0.019671 0.482511 -0.393343 -0.151715 0.261721 -0.072747 -0.502271 -0.549234 0.211742 0.523678 -0.605278 -1.216441 0.276193 -0.303218 -0.448041 0.054426 0.195111 0.591873 0.529794 0.140544 -0.106557 0.449874 -0.681410 -0.081559 -0.297204 -1.146024 
多 0.408527 0.983932 -0.090438 -0.744934 0.380265 -0.032638 0.992744 0.705324 -1.127324 0.678894 0.138722 0.333022 0.602323 -0.193873 0.080283 0.386956 0.876319 0.328613 -0.070253 0.371663 -0.503123 0.179985 0.790592 -0.633506 -0.008588 -0.078215 -0.169477 -0.424892 0.042265 -0.138707 -0.282319 -0.437229 0.037540 0.204211 -0.745022 -0.245341 -0.309937 -0.283114 -0.294927 -0.893025 0.369071 -0.082526 -0.596149 0.214760 1.141280 0.641242 0.893577 -0.585347 0.344163 0.149145 
月 -0.570301 0.123886 0.857687 -0.561970 0.218586 -0.926263 1.089023 0.331564 -0.701884 0.242226 -2.615239 -0.475946 -0.367324 0.031279 -0.794214 -0.189099 -0.485653 -0.419450 -0.069155 -0.819311 -0.796811 0.561631 0.235629 -0.651807 0.924030 -0.480950 -0.898161 -0.193059 -1.819952 -0.365928 -0.472639 1.448246 0.214832 2.117400 0.447912 1.499364 1.398300 0.388420 1.033258 -0.484410 0.925279 0.840881 -0.293304 -0.127935 0.998402 -0.822185 -1.979301 0.249737 -0.550972 -1.142467 
他 0.952908 0.576637 0.728589 0.073438 0.303521 -0.390501 0.715113 -0.135696 -0.394155 1.328843 0.349806 -0.082651 -0.545689 -0.508426 0.475931 0.566717 -0.267796 -0.274441 -0.056577 0.775635 -0.562341 -1.160778 0.499903 -0.030244 -0.269276 -0.018181 -0.141257 0.107434 -0.182966 -0.742238 0.162395 -0.135606 -0.366705 0.094615 -0.374633 -0.704235 0.185214 0.408888 0.054493 -1.182809 -0.439682 0.337222 0.204924 -0.232144 0.043642 0.303987 -0.258113 -0.356387 0.354493 1.300490 
作 -0.664796 0.062714 0.747431 0.662597 0.386820 0.616592 0.085238 -0.449620 -1.037098 -0.230680 0.229340 -0.762355 0.271408 0.167530 -0.969825 0.210070 -0.681630 -0.291231 -0.264050 0.376039 0.954258 -1.329233 0.456977 0.865141 -0.276602 0.647910 0.631126 -0.443299 0.464595 0.356915 0.330049 -0.358689 0.345631 -0.210785 0.661809 -0.130036 0.182512 -0.327233 -0.921806 -0.313830 -0.558258 0.323629 -0.163139 0.485203 -1.365523 0.654742 0.074707 0.636977 0.671454 -0.779238 
民 -0.068813 0.485024 -0.305184 -0.399196 -0.119496 0.113203 0.242454 1.057402 0.125165 -0.186956 1.309051 0.532965 -0.442825 -0.385785 -0.397348 -0.145895 -1.074991 -0.598008 0.291359 -0.565917 0.472920 0.352389 0.356408 0.361511 -0.828479 0.384634 0.495245 -0.772857 -1.366632 0.700693 -0.465202 -0.166835 0.203961 0.554401 0.980709 0.975349 0.457991 -1.117606 -0.238138 -0.826930 -0.360278 -0.235228 -0.603846 0.703917 0.228889 1.302412 0.689907 0.029972 1.019729 -0.551310 
部 -0.897384 -0.731736 0.196453 0.109106 1.073129 0.470878 -0.763208 0.258611 -1.031229 -0.736499 -0.243223 0.107992 0.086082 -0.578002 0.273251 -1.290426 0.071508 -1.839396 -1.005418 -0.449872 1.079666 -0.248746 0.075887 0.899155 0.202801 -0.370852 0.533636 1.002504 -0.320553 -0.583794 0.116631 1.086746 0.667993 0.269145 0.862478 -0.299243 0.520093 -0.766019 -0.920583 -0.608760 0.018510 -0.059404 -0.146133 1.042228 -0.331331 0.193750 1.154543 1.263757 0.535854 -0.240834 
我 0.952304 -0.432109 0.354401 0.490847 -0.455733 -0.929055 0.633467 -0.386604 -0.457527 1.279088 0.531749 -0.229865 -0.758339 0.806947 -0.060638 0.466149 0.578106 -0.452042 -0.172254 0.757230 -0.158845 -1.088346 1.638420 0.405449 0.406606 -0.507874 -0.119500 -0.168136 -0.251966 -1.166758 0.437890 -0.806416 -0.682077 -0.350828 -0.241015 -0.223774 0.176288 -0.225938 0.538163 -1.222152 -0.334383 0.237021 0.277148 0.368199 0.471172 1.169643 0.031757 -0.630771 -0.053378 1.058884 
全 -0.445893 -0.546196 0.201046 0.055153 -0.346684 0.652196 0.153413 -0.355813 -0.349961 -0.011299 0.215677 -0.261672 0.370552 -0.100072 -0.248610 -0.886495 -0.737618 -0.697872 0.029880 0.433210 0.901228 -0.208748 0.247866 0.416134 0.585550 -0.834651 0.967534 -0.805237 -0.981390 0.102971 -0.316570 -0.100187 0.830265 -0.519400 -0.117538 0.214432 0.170724 -1.260077 0.335075 0.345213 0.827416 0.167378 -0.314977 -0.080868 -0.300111 1.114083 -0.753455 1.347261 -0.199905 -1.089838 
能 0.056636 -0.614852 1.107008 0.368388 0.512763 -0.380448 0.809947 -0.829804 -0.535128 0.795251 1.128121 1.183630 -0.131844 0.059557 0.695266 -0.441621 0.770807 1.105954 0.118117 -0.150360 0.308448 -0.977641 1.409666 0.210719 -0.339184 -0.183711 -0.108598 -1.107022 0.215263 0.155254 0.377207 -0.449264 -0.530727 -0.528601 -1.124555 -0.831842 -0.748531 0.218642 -1.082765 0.055354 0.246269 -0.043533 0.899632 -0.052532 -0.336253 1.121407 -0.036283 -0.600685 0.022230 0.196294 
现 -0.419996 0.481277 0.236670 0.230839 0.056653 0.090177 0.280461 0.196955 -0.880065 -0.378439 0.181674 0.215648 -0.302545 0.413130 -0.128128 0.278254 0.211477 0.724306 -0.108866 -0.673428 0.530101 0.373144 0.155928 -0.479315 -0.359935 -0.310449 0.423044 0.069414 -0.865867 0.096893 -0.007447 -1.400516 0.034013 0.358135 -0.714031 -0.795980 0.131349 -0.045567 0.784864 -0.461326 0.119923 0.592680 0.380576 -0.085654 -0.601936 0.316140 0.596104 -0.364684 0.061293 0.047099 
者 -0.146879 0.862625 0.394728 0.446171 0.588309 -0.062654 0.492277 0.496404 -0.859723 1.377479 -0.314645 0.892812 -0.736924 1.029461 0.651246 0.929649 0.068521 -0.054668 1.607720 0.572595 0.581737 0.873720 -0.830967 -0.635154 -1.059603 0.262200 0.485295 0.177311 -0.751106 -0.384002 0.796935 1.019492 -0.084477 0.477917 -0.296210 0.931817 -1.450821 -0.075565 0.305647 -0.610204 -0.874092 -0.155538 0.089190 1.100599 -1.228029 -0.333000 -1.034941 0.368803 1.081092 -0.273444 
工 -0.689438 -0.204130 0.943341 1.490530 0.190372 0.958021 -0.180857 -1.020311 -0.744750 -0.275437 0.418905 -0.362597 0.821741 -0.116089 -0.666900 0.224832 -0.486131 -0.620143 -0.260923 -0.103663 1.060340 -0.596005 -0.295777 -0.165225 -0.018459 0.888435 1.380836 -0.318929 0.461935 0.402609 0.219287 -0.799971 0.075956 0.634581 1.194180 -0.064866 -0.372531 -0.512811 -0.572713 -0.992425 -0.513157 1.112489 -0.373674 1.060250 -0.598170 1.376054 -0.274300 0.933985 0.554690 -0.658862 
过 -0.179666 0.471014 0.935700 0.124276 0.108509 -0.030954 0.469291 -0.555728 -0.042234 0.768992 -0.610481 0.475456 0.044532 0.526873 -0.347845 0.029151 0.544924 0.699559 0.167460 -0.553992 -0.880722 -0.609895 -0.140237 -0.345390 -0.348723 0.069781 0.315144 -0.426504 -0.066635 -0.033358 -0.011809 -0.218025 -0.038139 -0.541402 0.362098 -0.443634 0.154217 -0.113275 0.026414 -0.695961 0.058045 0.066879 -0.157616 0.663481 -0.142929 0.199507 -0.059805 0.170687 -0.657992 0.322940 
方 -0.182123 -0.100371 0.897665 0.409753 -0.225473 0.080723 0.580522 0.884696 -0.839565 -0.232726 -0.858357 0.220485 -0.200364 -0.023539 0.047289 -0.603059 -0.880991 -0.373582 0.508510 -0.025091 0.810491 0.195585 0.659552 0.153557 -0.947045 0.336533 -0.383518 -0.740243 0.774539 -0.131566 -0.912068 0.183045 -0.291334 0.330532 0.801955 -0.294640 0.313062 0.398608 -0.432010 -0.044954 0.333486 -0.734116 1.002498 0.095855 -0.883694 0.856482 0.496415 0.290559 -0.372700 -0.179481 
4 -0.992152 0.510089 0.241975 -0.545752 0.283835 0.137673 0.241913 0.198509 0.175765 0.039364 -1.682424 0.311500 0.559429 -0.755351 -0.130615 0.282331 -0.718747 0.491776 -0.685307 0.363332 -0.378337 0.283767 1.121386 -0.285166 1.254140 -0.420223 -0.748796 -0.760317 -1.392948 -0.252169 -0.241191 0.389794 0.644153 1.161900 1.029646 0.054723 0.341585 0.244093 0.562276 -0.041486 1.463046 -0.052962 -0.569779 0.388618 1.477493 -0.929973 -1.194792 0.236629 -0.898310 -0.848118 
车 -0.608461 -0.041831 0.407393 0.842187 -0.146866 -0.972388 -0.403230 -0.600263 0.669922 0.225967 -1.701142 0.648110 0.984440 -1.595576 1.148653 0.586830 -1.879693 -0.608040 -0.585765 0.521719 -0.255275 -0.570389 -1.320094 -2.144883 -0.836959 -0.171567 -0.494435 0.399247 0.825382 -1.300345 -0.502052 0.024124 1.543150 -1.289295 0.069677 -0.549769 -1.207361 -0.783381 0.579980 0.905085 1.705173 1.271496 1.484635 0.035124 0.355164 0.069699 0.483533 2.045560 -1.092435 0.836305 
前 0.057101 0.396248 0.431129 0.211187 -0.196468 -0.347968 0.603900 -0.175915 -0.120334 0.208512 -0.354927 -0.190013 -0.485889 0.553968 0.739762 0.484372 0.123386 -0.346716 -0.210381 -0.455329 -0.381370 -0.226410 -0.386377 -0.375463 -0.006179 -1.116440 -0.355198 -0.461338 0.288802 -0.634673 -0.489340 0.220509 0.589616 0.851033 0.196906 -0.874255 0.419722 0.459871 0.466497 -0.346058 0.777579 0.300356 0.559736 0.478378 -0.095736 0.864417 -0.756221 1.097944 -0.205085 0.289888 
动 -0.058411 0.507937 -0.038679 -0.913456 -0.375190 -0.404015 -0.338290 -0.783577 -0.194372 0.259264 1.017702 0.098638 0.812670 0.230360 0.622850 -0.632077 -1.277781 -0.320651 -0.153741 0.256466 1.048245 -0.534431 -0.254968 0.066825 -0.675047 1.562628 -0.245717 -1.009484 -0.242577 0.213992 -0.739288 -0.398726 0.802711 -0.305620 0.251236 0.014773 0.328184 -0.767438 -0.760600 0.310544 -0.080949 0.350371 0.137393 -0.530374 -0.643703 1.337277 0.940083 0.189150 -1.290939 -0.606261 
进 -0.650355 -0.276242 0.588251 0.495580 -1.754635 0.328496 -0.565103 -0.758459 -0.247419 -0.477337 0.149027 0.694494 0.509059 -0.205584 0.042576 -0.545018 -0.866877 -0.503388 -0.813349 -0.098217 0.702280 -0.596466 0.344598 0.703981 -0.663526 0.901974 0.333390 -1.140563 -0.180387 0.612392 -0.128240 -1.818441 0.134879 0.169211 0.260990 0.359125 0.017108 0.711923 0.137583 -0.739080 0.256120 0.292959 -0.575929 0.485236 -0.803910 0.913542 0.630394 1.127117 -0.144171 -1.451002 
经 0.107175 0.826461 -0.515082 0.282715 0.628934 0.946842 0.099226 -0.514658 -1.076276 -0.702466 -1.156901 -0.214292 -0.684045 0.331303 -1.030320 0.904850 -0.573591 -0.845931 -0.623258 0.014496 -0.164430 0.665488 -0.142366 -0.640851 0.674068 -0.371958 0.042267 -1.215427 -0.385196 0.726139 -1.050540 -0.984529 0.239940 -0.960590 -0.014961 -0.914293 0.886396 0.866578 0.116921 -1.212457 0.775236 0.788961 -0.456766 0.157887 -0.575860 1.989144 -0.650115 0.055627 1.097195 -0.434961 
5 -1.595012 0.742177 0.802066 -0.884668 0.888081 0.985964 0.006152 0.269954 0.262284 -0.293378 -1.671105 0.468969 1.179047 -0.929765 0.095510 -0.180161 -0.301184 0.643036 -0.364854 0.281256 -0.846375 0.212277 0.970811 -0.851572 1.074281 -0.734184 -0.544472 -0.182052 -0.211563 0.182427 -0.488409 0.798153 0.962626 0.927371 1.037487 0.321207 -0.803121 -0.366510 0.333454 -0.306713 0.790023 -0.060365 -0.707311 0.392792 1.989230 -1.047135 -0.921143 -0.060850 -0.392234 -1.287587 
也 0.304192 0.529260 0.159519 0.193785 0.290657 -0.441060 0.309953 0.189178 -0.453219 1.047196 0.817254 0.176219 -0.164214 -0.114569 0.124841 0.358227 0.172770 0.294740 -0.160329 0.193070 -0.618749 -0.488504 0.859846 -0.196690 -0.113570 -0.056999 0.234079 0.137417 0.175432 -0.284102 -0.060994 -0.436873 -0.113240 -0.558228 -0.686741 -0.405811 -0.186278 0.155563 0.130439 -0.476097 -0.082888 0.157561 0.376766 -0.016083 -0.098108 0.717647 0.015845 -0.150204 0.012330 0.684614 
子 0.433478 0.057550 0.517355 -0.756693 0.473539 -0.080579 -1.375888 0.723828 0.672383 1.108833 0.369354 0.119214 0.099226 -1.549506 0.216222 0.238363 0.180703 -0.507405 0.105651 0.463909 -1.231425 0.069277 -1.147667 -0.146326 -0.604740 -0.306530 -0.300515 0.693280 0.342238 -0.938965 0.765146 -0.409572 -0.952133 -0.153631 -0.661977 -0.226081 1.826749 -0.278094 -0.470053 -1.931568 0.272816 0.529758 0.580495 -0.427221 0.506823 -0.186222 -1.215613 -0.619861 -0.432396 0.546035 
开 0.100393 -0.311304 0.583710 0.397494 -1.112991 -0.819791 0.208316 -0.437134 -1.365685 -0.297346 -0.898993 -0.608652 0.246599 -0.520911 0.881140 -0.092666 -0.892033 -0.213236 -0.283480 0.505720 1.045211 0.125500 -0.079112 -0.478962 -0.404512 -0.094023 0.786956 -0.484915 -0.569604 0.271215 -0.763617 -0.134146 0.579715 0.259819 0.421508 0.784219 1.428541 0.714985 -0.060423 -0.242141 0.157158 1.158500 0.045656 -0.504932 0.220004 0.811786 0.108611 0.578587 -2.093769 -0.238548 
： 0.624829 -0.199728 0.141724 0.537355 0.000414 -0.847459 0.321090 0.347217 -0.042779 0.936564 -0.688940 0.121633 0.215920 0.848048 -1.024231 0.676305 0.811794 0.055744 0.201604 0.902102 -0.020208 0.175524 0.148070 -0.103942 1.398089 0.414653 -0.381170 0.305063 -0.295065 -1.757703 0.681483 0.122966 -0.248137 0.242859 0.318642 0.041486 0.341692 -0.714639 -0.153614 0.505405 -0.895845 -0.789373 0.276383 -0.582872 -0.228118 0.345863 -0.456227 0.017298 -0.285706 0.180923 
业 -1.596537 0.119466 -0.064789 -0.380718 0.439072 1.361706 -0.616671 -0.582538 -0.568061 -0.549343 0.876120 -0.046015 1.552189 -0.568126 -0.181117 1.364450 0.817584 -1.167707 0.417566 0.628086 1.358251 1.046738 -0.084977 -0.233676 -0.160940 0.430500 1.429353 -1.116370 -0.431533 1.713079 0.124600 -1.417258 0.658237 -0.916153 0.638277 -0.614086 -1.233300 0.221798 -1.624911 -0.648498 -0.875724 0.975527 0.160136 0.783865 0.786020 1.922632 -0.526654 -0.043506 -0.138204 -1.615547 
实 0.486571 0.015057 0.837795 -0.168988 -0.297761 0.109461 0.612063 0.714230 -1.272817 -0.263693 0.080976 -0.211006 -0.060794 0.692825 -1.056534 -0.575940 0.084784 0.087281 0.154788 -0.349720 0.616310 -0.361363 0.910950 -0.082497 0.455866 0.522220 -0.041679 -0.869026 -1.270428 0.894288 0.508352 -1.475551 -0.292810 -0.509687 0.959149 -0.518698 0.712066 -0.313085 -0.127719 0.104487 0.258377 0.211061 1.158066 -0.110451 -0.441279 1.197511 0.295995 0.710837 -0.015549 -1.380481 
于 -0.288671 -0.370780 0.144341 -0.704408 0.298378 -0.207521 0.718239 0.002213 -0.604476 0.159185 -0.123547 -0.315318 -0.126290 0.019537 -0.358164 -0.190510 -0.397423 -0.075464 0.279417 -0.717155 -0.784566 -0.153634 0.270166 0.320886 0.103631 -0.378090 0.086076 0.330466 -0.150465 -0.034583 -0.252386 0.681906 0.058366 0.179340 0.215029 -0.200793 0.434799 0.678574 -0.155713 -0.020339 0.172592 -0.117620 0.209940 0.281143 -0.238883 0.695042 -0.654633 0.518049 0.238684 -0.398868 
用 -0.564956 -0.040627 1.031514 0.736504 0.747693 0.075468 0.657674 -0.786321 0.339516 0.670259 -0.414042 0.892935 0.113910 -0.282435 0.402752 -0.472937 -0.193361 0.512074 -0.036068 0.266447 0.161489 -0.227252 0.660713 -0.653863 -0.865273 0.262382 1.123575 -0.947337 0.957722 0.747923 0.732981 0.512812 0.162446 -1.131202 0.338328 -0.410171 -1.241490 0.449100 -1.047534 -0.580545 0.229059 0.165565 0.650474 -0.341073 -0.342752 0.878341 0.622352 0.349247 0.083143 -0.388515 
就 0.000228 0.009256 0.386767 0.834157 -0.466663 -0.321784 0.150447 -0.380085 -0.777923 0.888735 -0.015163 0.474192 0.141438 0.134815 0.119327 0.570638 0.614475 0.320120 -0.075992 0.021370 -0.654920 -0.636452 0.861984 0.080035 -0.034536 -0.364922 0.118596 0.067097 0.363391 -0.590499 0.720264 -0.317718 -0.724848 -0.268768 -0.301160 -0.359958 -0.097913 0.018475 0.368050 -1.067111 -0.051260 0.641432 -0.242520 0.294889 0.417789 0.738413 -0.227852 -0.190666 -0.709171 0.979545 
法 0.048240 0.576140 0.846738 0.251716 -0.657547 0.072294 -0.266141 0.578626 -0.055731 -1.554663 -0.378680 0.536018 -0.053434 -0.580034 -1.926356 -0.246544 -1.243216 -0.650695 0.790531 -1.359986 0.176480 -1.867009 0.840487 0.278830 -0.673993 -0.559139 1.089920 0.726261 0.351632 -0.656871 0.510285 0.769936 -0.754218 0.205359 1.365269 -0.040718 -0.180129 0.595788 -0.815655 1.160982 -0.449183 -0.888292 0.478967 -0.452471 -1.482417 1.325244 0.549900 0.967444 0.967833 -0.564192 
们 0.903263 0.000663 0.494532 0.120603 -0.237937 -0.953797 0.407784 0.320563 -0.493557 1.941584 0.407845 0.158673 -1.131335 0.302782 0.146836 0.023069 0.003091 -0.287775 -0.872289 0.810732 -0.251998 -1.276915 1.248821 0.428945 -0.215001 0.044615 0.177961 -0.348791 -0.132142 -0.935608 0.146304 -0.847631 0.107359 -0.400833 -0.666226 -0.508483 0.050585 -0.041133 0.398476 -1.637723 -0.094286 -0.160597 0.003231 0.155617 0.298061 1.120414 0.236404 -0.784970 0.644388 1.339036 
天 -0.338820 -0.921254 0.018662 0.762427 0.174558 -1.396876 0.255810 -0.039313 -1.270455 0.727642 0.105095 -0.659144 0.360613 0.228704 0.272326 0.801690 0.622292 0.059349 1.380363 -0.703402 -0.956005 0.368018 0.596295 -0.236960 0.824661 -0.788938 -0.419949 -0.399132 0.221168 -1.366118 -0.038397 0.257550 -0.594699 0.652118 -0.426378 0.671583 0.807011 -0.678791 1.057734 0.585940 0.337795 1.031101 -1.028561 0.441885 0.287380 -0.210883 -0.922388 0.000699 -0.935875 0.574940 
分 -0.729070 1.673406 1.104086 0.503349 0.658159 -0.140268 0.090677 -1.240515 0.062856 -0.802313 -0.145078 0.240754 1.408369 -0.749498 0.705875 0.409390 0.915639 -0.079513 0.117441 -0.413059 -0.809573 -0.834634 0.858904 0.093801 0.851676 0.017674 0.307682 -0.279748 -0.351322 -0.790963 -0.372204 -0.731670 -0.221464 0.873455 0.320110 0.094054 -0.581989 -1.200486 -0.547477 -0.374861 0.821375 -0.353510 -0.349794 -0.276372 0.220536 -0.391178 0.840740 0.078608 0.142240 -1.028803 
将 -0.393571 -0.199708 0.437576 -0.098196 -0.268193 -0.260730 -0.015699 -0.366411 -0.518986 -0.120787 -0.481021 -0.124437 -0.148900 -0.448686 0.390307 -0.198869 -0.816696 -0.172535 -0.071205 -0.144281 0.073354 0.087313 0.182750 0.534370 -0.232125 -0.058497 -0.220312 -0.600124 -0.122513 0.016512 -0.193762 -0.032021 0.302239 0.674106 0.536438 -0.212145 0.722098 0.446873 -0.265746 -0.024113 0.977823 0.566199 0.246193 -0.253738 -0.274198 0.644282 -0.296973 0.752539 -0.457558 0.477819 
机 -0.541731 -0.285309 1.288255 0.797996 0.126728 1.031749 -0.383605 -0.176405 0.699930 -0.053465 -1.495483 -0.123221 -0.137753 -0.639817 0.286339 -0.051174 0.078220 -0.113443 1.102689 -0.433156 1.613021 -1.240518 -0.275220 0.712674 -0.885678 0.940939 -0.251839 -1.105498 0.978381 0.011178 0.638394 0.471361 1.162862 -0.576541 0.738391 -0.718066 -0.502055 -0.518913 -0.444663 0.576891 0.795903 1.158304 0.334061 -0.781432 -0.195444 0.953856 1.130716 0.253113 0.302957 0.825213 
下 -0.818427 -0.210910 1.162631 0.290138 0.605763 0.190742 0.025253 0.231448 -0.910285 0.083486 -0.515850 -0.175058 0.270281 -0.398337 0.981378 -0.101759 -0.437010 -0.190822 -0.178380 -0.150547 -0.812838 0.200177 0.424316 -0.209029 0.006485 -0.101274 -0.707369 0.419431 0.606396 -0.139451 -0.441134 -0.011689 0.017399 0.379712 -0.130200 0.548133 0.214682 -0.263054 0.719103 -0.558118 0.489484 0.939405 0.108644 0.256453 0.176733 -0.050382 0.098579 -0.302161 -0.322969 0.769414 
自 0.522247 0.197886 0.319248 -0.258247 0.697240 -0.071929 -0.173423 0.040135 -0.338994 -0.088228 0.551261 0.520007 -0.287208 -0.045760 -0.322248 0.351819 -0.374561 -0.255863 -0.505361 0.887125 -0.581920 -1.062130 1.320041 0.845309 -0.344136 -0.819552 -0.157805 0.407798 -0.430021 -0.408618 0.794909 -0.004166 0.327192 0.083757 0.051476 0.400569 -0.839728 -0.323706 -0.516302 -1.159732 0.258177 0.607631 -0.303730 -0.040289 0.180796 0.245598 0.096407 -0.562609 1.499322 0.654020 
高 -0.511755 -0.168622 0.538091 0.064483 0.890873 0.542793 -1.055857 -0.729572 -0.163235 -0.182229 0.089386 0.522536 0.999131 -0.167536 -0.214533 -0.625786 0.703949 -0.165465 -0.036965 -0.972821 -0.786441 -0.448878 1.304619 -1.321712 -0.298590 0.312594 -0.660513 -1.241900 -0.907219 0.615735 -0.602570 -0.198028 0.922603 -0.794392 0.258154 0.337235 -0.494182 -0.737304 0.568391 0.478575 0.497486 -0.483094 -0.071115 0.413430 -0.859952 0.102018 0.034393 -0.040079 0.080939 0.097632 
可 0.357825 0.293347 1.073527 0.097069 0.242164 -0.435856 0.861516 -0.154436 -0.249454 0.736856 -0.079521 1.148371 -0.421259 0.049491 0.736913 0.230672 0.275838 0.487737 0.479268 -0.277461 -0.506535 -0.737265 0.383848 0.178032 -0.344282 -0.116791 -0.458382 0.087790 0.728566 0.387758 0.681274 -0.022579 -0.893863 -0.455290 -0.697452 -0.683102 -0.910658 -0.054900 -0.142566 -0.167978 0.336579 -0.096368 0.656492 0.468041 0.302813 0.760679 0.719709 -0.441462 0.121220 -0.472505 
政 -1.071000 -0.640854 0.877498 -0.231284 -0.766749 -0.056675 -0.032238 0.133156 -1.626275 -0.423906 0.133168 -0.747690 -1.104677 -1.012198 -0.900845 0.920036 -0.232213 -2.952257 -0.287894 -0.878668 -0.027450 -0.601800 0.280958 1.492648 0.729934 0.653662 0.805990 -1.172361 -0.245835 0.213225 0.430386 0.114689 -0.852689 -0.145128 2.301761 1.259293 1.540453 -0.398707 -1.386811 0.335097 -0.537579 -0.103978 1.126279 1.455832 0.320399 0.246220 1.369027 -0.704393 2.057209 -1.861264 
区 -0.921532 -1.692870 -0.892479 -0.041726 0.695151 0.151421 -0.473470 0.034143 -0.214379 -1.711971 0.497728 -0.885018 0.420971 -0.606325 -0.326844 -0.677010 -0.402905 -1.565500 -0.650439 -0.637399 0.921052 0.878426 0.352579 -0.425668 -0.470945 -0.375136 0.416518 0.599708 -0.492968 -0.618377 -1.004402 -0.652169 0.685435 -0.058115 0.615865 1.889271 -0.073825 -1.221691 -0.362459 -0.147481 -0.016587 0.888862 -0.540411 1.012934 0.599600 0.987572 1.289760 0.432914 0.869502 -0.808978 
说 1.332924 -0.572223 0.182031 0.878278 -0.086121 -0.204248 -0.002107 -0.382478 -0.145021 0.934192 0.550661 0.023091 -0.727271 0.314769 -0.608167 1.085754 0.452064 0.104973 -0.272221 0.236506 -0.837152 -0.683860 0.500829 -0.264622 0.693026 -0.218481 0.007260 -0.033150 -0.350114 -1.806291 0.270370 -0.170636 0.118433 0.061363 0.008494 0.312981 -0.191732 0.450447 -0.411242 -0.934965 -1.025467 -0.143177 0.437105 -0.024746 0.274905 -0.115147 -0.368484 -0.121239 0.162422 1.226535 
等 -0.571957 -0.519916 0.106564 -0.127516 -0.086269 0.210499 -0.671228 0.034406 0.202336 -0.278485 0.122160 0.219963 0.142490 -0.510209 -0.215621 -0.193077 -0.328780 -0.212945 0.531931 -0.419570 0.586686 0.587050 -0.085597 -0.269929 -0.567765 0.226497 0.597464 -0.389797 0.108019 0.527423 0.050267 0.046058 0.167009 -0.586367 0.002007 -0.382405 -0.830317 -0.567831 -0.756496 0.096920 -0.292614 0.413784 -0.336272 -0.155654 -0.502082 1.051318 0.597095 0.159359 -0.196689 -0.719533 
关 -0.745524 0.638927 0.876059 0.544522 0.158046 -0.738244 0.186114 -0.200836 -0.066530 0.384391 0.553934 -0.013716 -0.053992 0.988576 -0.144657 -1.179879 -1.323968 -2.241000 -0.240010 0.266331 0.378235 -0.601789 -0.052152 1.432854 0.519739 0.820761 0.439780 0.960263 -1.862763 -0.577436 -0.432520 -0.354710 1.215310 -0.513436 0.652600 -0.472677 0.328957 -0.319050 -0.818280 -0.672888 -0.574006 -0.710582 0.096857 -0.599007 -0.442438 1.221072 1.486293 1.171001 -0.423025 -1.175770 
记 0.840422 -0.766979 0.056416 0.514283 0.476946 -0.750008 0.844948 -0.541626 -0.374800 0.464511 -0.620021 0.526349 -1.369460 1.721784 -0.737376 0.668031 -0.120991 0.490678 0.778605 0.374301 0.798366 0.846619 -0.981448 0.390521 -0.247432 -0.148105 0.408228 0.921285 -2.366975 -0.380353 1.522308 1.502152 1.310784 1.171699 0.736504 1.713546 -0.316815 -0.741492 0.569601 -1.206532 -0.669046 1.689911 -0.221791 1.412705 -1.107236 -0.947973 0.764884 0.560649 1.057608 1.025420 
体 -0.302599 0.550694 0.385346 0.286314 1.030413 0.599638 0.413315 0.150533 -0.078390 0.438029 0.981284 -0.289719 -0.471583 0.313801 -1.531626 -1.241420 -0.044829 -0.640491 0.420735 -0.639011 0.700884 0.193440 -0.446367 0.654279 -0.088872 -0.099792 -0.088258 -1.940206 0.122955 0.829098 -0.121156 -1.317625 0.767226 -0.510044 0.643761 -0.929425 -0.171678 0.226924 -0.099893 -0.339517 -0.169403 0.255374 -0.300801 -0.336423 -0.835289 1.239901 0.028817 -0.927202 0.041473 -1.017302 
报 -1.563774 1.032946 0.034287 1.300788 0.060235 -0.038742 1.168046 0.597059 -0.196812 1.366999 -1.188052 -0.167356 -0.733624 1.632995 -1.653393 -0.088352 -0.218778 -0.737120 0.225703 -1.591838 0.622216 0.905090 -0.689227 0.093605 -0.222300 0.257836 -0.685651 -0.172477 -1.051792 -1.833878 0.436992 0.193533 2.072900 0.096671 0.992695 0.846221 -0.628635 1.299516 -0.421840 0.080474 -1.338981 -0.859676 -0.298923 1.343763 -0.830935 -0.581212 -0.768241 0.732666 0.536253 -0.642846 
安 -0.184602 -1.423408 0.100267 -0.055369 0.444225 0.069943 -0.831968 0.213686 -0.602706 -0.734694 0.081415 0.308941 -0.921244 -0.535705 -1.368044 -1.086162 -1.409594 -0.413785 0.895032 0.580578 0.845099 -1.029188 -0.431984 -0.633311 -0.131050 0.066860 1.372149 -0.361028 -0.662707 -0.112363 0.581509 1.077431 0.526555 0.436012 -0.299164 0.841153 -0.073176 -1.103111 0.054355 -0.040838 1.132175 -0.174409 -0.373474 -0.303245 0.327556 1.662655 -0.695437 1.762725 0.834731 -0.584074 
小 0.024064 0.248368 0.696963 0.460880 0.334237 -0.159605 -0.969546 -0.238232 -0.068148 0.470914 -0.232274 -0.130148 0.558321 0.072217 0.544090 0.519794 0.451902 0.507011 0.079025 0.617292 -0.492166 0.178576 0.088989 -0.409903 0.173760 -0.724719 -0.226627 0.231457 0.093647 -0.260417 0.390053 -0.496279 -0.007762 0.128434 -0.184861 1.095207 0.603745 -0.656413 -0.239738 -0.793102 -0.081277 0.098067 -0.208354 -0.044332 0.766474 0.107707 0.062205 -0.321230 -0.530346 0.399754 
事 0.902539 -0.239189 -0.068363 -0.083389 -0.867151 -0.177796 -0.101293 0.907863 0.098221 0.631026 -0.810397 0.800889 -0.610136 -0.644042 -0.085743 0.390279 -0.830057 0.052793 0.564693 -0.997786 1.001506 -0.689676 -0.317673 0.369061 0.427853 0.638972 0.369081 1.164309 -0.264017 -0.968028 -0.223179 -0.986517 0.199196 1.049631 0.138500 -1.278842 -0.329137 0.477577 -0.316790 -0.890185 -0.924565 0.037949 -0.479651 0.811985 -0.188549 0.537700 0.864711 -0.303599 -0.114049 0.207454 
主 0.615990 -0.439937 0.111246 0.264676 0.890655 0.835243 1.596972 0.104784 -0.682558 -0.760498 1.075388 -0.290745 0.088819 -1.110577 -0.464009 1.296116 -0.990105 -0.878789 -0.937219 0.143937 0.504901 0.274000 0.078610 -0.228178 1.150328 0.149283 1.168026 -0.005402 -0.056084 0.342693 -0.026733 0.033431 0.742711 -0.539592 1.311937 0.078561 0.105406 0.006832 -1.026481 0.024323 -1.637165 0.438717 -0.968960 -1.123968 -0.993185 0.555549 0.368982 0.244758 -0.040741 0.156389 
场 -0.548245 -0.128956 0.253265 -0.101688 -0.459084 0.028184 0.668044 -0.735584 -0.858522 -0.372621 0.078243 -0.427434 0.828011 -0.740809 0.122939 -0.338830 -0.122401 -0.762945 0.301325 -0.892420 0.638212 1.037033 -0.056863 -0.191698 -0.950950 -0.077397 0.677603 -0.793775 -0.217003 -0.029429 -0.519411 -1.145935 1.657987 0.077488 -0.369804 0.108773 0.091320 0.164312 0.312778 0.326332 1.159799 0.016665 -0.395830 -0.269344 -0.713659 0.760037 0.523018 0.137724 -0.329246 0.355265 
还 0.481095 0.072933 0.374810 0.086388 0.218480 -0.505236 -0.056948 -0.070348 -0.493600 0.767293 -0.138372 0.430314 -0.171133 0.156478 0.328986 0.528249 0.334776 -0.029293 0.324221 0.307361 -1.191104 -0.360197 0.506178 -0.097963 -0.249444 -0.461856 -0.007728 0.345323 0.462003 -0.685463 0.297000 -0.592688 -0.283055 -0.353018 -0.499103 -0.309602 -0.343695 0.617837 0.093248 -0.061429 0.378963 -0.095180 0.227226 0.480195 -0.205962 0.457451 0.274323 0.096011 0.009126 0.623998 
都 0.152561 -0.052593 0.117134 0.127086 -0.244908 -0.234303 0.725493 0.143639 -0.488009 0.959605 0.476947 0.258019 -0.057772 -0.081465 -0.577970 0.408650 1.242111 -0.058178 0.007913 0.432193 -0.499447 -0.053776 0.464963 -0.027996 0.193921 -0.242489 0.668726 0.297792 0.493760 -0.747362 0.233669 -0.395154 0.190692 -0.193771 -0.886576 -0.316526 -0.496712 -0.527256 -0.059863 -0.452121 0.070934 0.402220 -0.053527 0.428327 0.489769 0.619687 0.593486 -0.759299 -0.248598 0.832856 
理 0.357879 -0.743333 1.227634 0.581584 -0.498385 -0.120510 -0.248205 -1.087619 -1.086214 -0.081221 0.165753 0.303162 0.451107 0.491152 -1.511017 -0.810194 -0.569881 -1.407100 1.269024 -0.473369 0.618286 -0.619736 0.293511 0.098533 0.196778 -0.509427 1.678891 0.500512 -0.985094 0.402862 -0.033739 -0.112943 -0.328081 -0.239483 0.924689 0.960261 -0.341573 0.464341 -1.429418 0.625629 -0.477303 -0.102235 0.131180 -0.295938 -0.907225 1.123994 0.925107 0.900477 0.606730 -0.548847 
长 0.684416 -0.766320 0.083682 0.358019 0.799585 0.619818 -0.704908 -1.699948 -0.392117 -1.492340 0.100701 -0.415184 0.002930 -0.655920 -0.163817 1.287512 0.499784 -0.340259 -0.559633 -0.106307 0.062980 -0.037379 -0.482202 -0.474391 0.464241 -1.115279 0.206819 0.035826 -1.091516 0.200813 -0.039371 0.662475 0.769733 0.327466 0.060055 0.402026 -0.217920 -0.564857 -0.410770 -0.630663 0.640695 -1.248091 -0.255835 0.630029 0.146048 0.721069 0.679265 -0.620906 0.066975 0.099572 
同 -0.310654 0.764871 0.339012 -0.637612 0.525302 -0.267301 -0.341383 0.135122 -0.511671 0.341538 0.581560 -0.082437 -0.066177 0.137961 0.328888 0.090728 -0.455042 0.024913 -0.977187 -0.042245 -0.507230 -0.671999 0.342339 0.086625 0.217851 -0.737210 -0.066395 -0.517253 -0.497231 -0.014222 -0.273216 -0.291015 0.972466 -0.011884 -0.404823 0.893301 -0.474938 -0.665106 -0.377475 0.288359 -0.076446 -0.060845 -0.459267 0.372542 0.406298 0.818613 0.350592 -0.450680 0.825458 -0.131579 
定 -0.609278 -0.042239 1.297218 -0.603281 -1.519572 -0.021603 0.322546 -0.411997 -0.775106 0.182293 -0.322738 0.978729 -0.345237 -0.188535 -1.590946 0.578922 -1.081818 -1.106015 0.847972 -0.481864 -0.553071 -1.546445 0.397596 0.742889 1.678681 -0.431892 -0.231923 -0.203102 0.983688 1.189093 1.081399 -0.658600 -0.504278 -0.104434 1.630147 0.214826 0.098960 -0.379816 -0.261769 0.840338 -0.112166 0.097674 0.992645 -0.682588 -1.375445 0.800284 0.292313 1.330351 0.575642 0.726817 
6 -1.598793 0.744363 0.727004 -1.081899 0.957843 0.582893 0.113902 -0.025456 0.171860 -0.376251 -1.713748 0.582297 0.762364 -0.295819 -0.061896 -0.110669 -0.502627 0.794184 -0.607319 0.148141 -0.268955 0.441212 1.017603 -1.215478 0.916851 -0.399930 -1.017213 -0.575488 -1.213953 -0.053802 -0.058299 1.075734 0.867518 0.455018 0.916638 0.120201 -0.373172 -0.263627 0.700997 -0.253044 0.741981 -0.034369 -0.860800 0.595789 2.007268 -0.926208 -1.020355 0.326820 -0.531854 -0.590747 
力 -0.556554 -0.982718 0.419170 -0.433766 0.646613 0.482389 -0.341357 -1.667192 -0.732059 0.066942 2.090021 -0.594998 -0.641271 -0.443347 0.797719 -0.855749 -0.643135 0.168852 0.595826 0.043719 1.463191 -0.716138 1.638147 0.954157 0.082496 0.883643 0.248908 -1.625574 -0.210489 1.083893 -0.605886 -0.507299 0.645253 -0.802945 0.454383 -0.668368 -0.699444 -0.106609 -0.308490 -0.544034 -0.109112 -0.705239 0.291258 -0.930811 -0.325123 1.022211 -0.273951 -0.764912 0.256255 -0.797039 
加 -1.071927 0.276641 -0.490612 0.340174 0.008947 1.008594 -0.409595 -0.462691 0.172791 0.647349 0.587078 -0.485202 0.774307 -0.638033 -0.114202 -0.349504 -0.149303 -0.239850 -0.505476 0.698917 0.169725 -0.860386 0.987145 0.940937 -0.044762 0.364296 0.360541 -0.835605 -1.062115 1.404326 -1.132369 0.004031 1.222761 -0.461535 0.136542 0.845890 -1.294761 -0.352981 0.451907 0.202694 0.757561 0.092536 -0.264693 0.188040 -0.894325 1.064419 0.411991 0.516685 0.020608 -0.509309 
建 -0.873552 -1.648092 0.503628 0.790558 -0.804397 1.427206 -1.295922 0.318972 0.199158 -1.209637 0.432898 -0.569374 0.694582 0.665358 -1.424997 -0.826976 -1.604819 0.335305 -1.343661 0.010614 1.546567 -0.305663 1.647911 -0.927635 0.251933 -0.698023 0.493556 -1.527678 0.499664 -0.297521 -0.717040 -1.025969 0.555038 0.513884 1.487452 1.127150 0.037249 -1.144186 -1.164158 -1.002991 -0.381691 -0.273353 0.745160 -0.015250 0.244849 1.797514 -0.175010 0.823608 0.433859 -1.393905 
面 -0.205710 0.246493 0.555401 -0.620072 0.058082 0.376797 0.155593 0.209893 -0.932027 -0.627630 0.378551 0.256121 0.162159 0.423422 -0.051257 -1.300202 -0.536178 0.012295 0.237206 0.323072 0.488328 -0.117905 0.722250 0.568083 0.126102 -1.146501 0.328184 -0.625140 1.539206 -0.165967 -1.101990 -0.920344 0.211924 -0.416639 0.456299 0.489279 0.230483 -0.558034 0.523704 -0.921428 0.421415 0.758109 0.861568 -0.049869 -0.105678 -0.007890 0.724776 1.024472 -0.385092 0.052255 
9 -0.918705 0.379750 0.439759 -1.076695 1.418285 0.167681 0.566660 0.054409 0.324752 -0.227810 -2.174757 0.133906 0.499921 -0.887074 -0.300478 -0.064446 -0.646280 0.253911 -0.111050 -0.219881 -0.303786 0.077170 0.372458 -0.937545 1.425996 -0.138919 -0.759981 0.002743 -1.955018 -0.358454 -0.482490 1.186826 1.189361 1.053114 0.957261 0.714774 0.071571 -0.216333 0.751051 -0.444785 0.692922 -0.000779 -1.160118 0.537697 1.386600 -1.181203 -1.566353 -0.128722 -0.603978 -1.243421 
表 0.582873 0.143151 -0.714256 0.217278 1.410762 0.332485 -0.388106 0.598796 -0.784641 0.506107 1.028947 -0.219828 -0.795526 0.972681 -0.659307 1.956845 -1.052023 -1.371009 0.480868 0.228587 0.608508 -0.884138 0.353257 -1.349570 1.083386 0.746786 0.279848 -1.459333 -0.037076 -1.327816 0.436629 -0.191373 1.186939 1.367422 -0.500899 0.136007 0.081056 1.188144 0.616070 -0.969307 -0.464851 0.259373 0.400339 -0.413669 -0.442566 -0.288084 1.077657 -0.294533 0.505819 -0.273401 
最 -0.235961 0.542706 -0.175231 -0.626507 -0.261646 -0.357865 0.661988 -0.503216 -0.569421 0.268272 0.227331 0.206328 0.500574 -0.353297 -0.782594 -0.139490 0.637451 0.910889 0.221283 -0.623561 -1.032546 0.134157 1.770524 0.261399 0.194332 0.269012 -0.477768 -0.241907 -0.330821 -0.074719 -0.268065 0.920211 -0.103602 -0.093892 -0.241337 -0.807152 0.089518 0.341951 0.502403 0.465652 -0.068876 0.741989 -0.253817 -0.084313 -0.941719 -0.154216 -0.763085 -0.087489 -0.546030 0.709604 
其 -0.055870 0.481825 0.316549 -0.716011 1.061491 0.302069 0.179870 -0.399436 0.266957 0.461032 -0.040837 0.393226 0.672156 -0.461946 0.050700 0.136091 -0.401909 -0.470273 0.312426 -0.327773 -0.324331 -0.154137 -0.264816 0.196110 -0.151657 -0.008121 -0.087664 0.367881 0.473795 0.030352 -0.242604 0.597207 0.018534 -0.193615 -0.274689 -1.014165 -0.612548 -0.293019 -0.080166 -0.076270 -0.499328 0.651046 0.739206 0.064054 0.298041 0.367336 0.064318 0.311800 0.504620 -0.233756 
次 -0.154490 0.538860 0.240897 -0.614744 -0.228257 0.526434 0.308433 0.242209 -0.695295 1.005619 -1.585474 0.292315 -0.035294 0.347155 0.072290 0.850447 -0.380884 -0.193055 0.382538 -0.032659 0.147990 -0.824812 0.281458 -0.147784 0.808310 0.241923 0.163741 -0.568292 0.666373 -0.217587 -0.801461 0.366146 0.938632 0.098337 0.497178 -0.356164 0.777302 -0.151781 0.591521 -0.788791 1.437907 0.446707 -1.307018 0.293063 -0.691846 -0.469866 -0.004809 0.467273 -0.411384 0.123093 
8 -1.212315 0.797548 0.674475 -0.710530 0.889267 0.588116 0.077726 0.197959 0.256308 0.374154 -2.284776 0.441122 0.839380 -0.712510 -0.296846 -0.137208 -0.292258 0.311924 -0.298781 0.041640 -0.561624 0.371611 0.601233 -1.252802 0.994673 -0.370643 -0.495007 -0.238774 -1.109899 -0.120319 -0.272785 0.749438 0.817810 0.993366 1.308997 0.659005 -0.075127 -0.628115 0.248775 -0.392593 0.706705 -0.416353 -0.528540 0.797620 1.901956 -0.738212 -1.531274 0.274101 -0.491150 -0.958456 
与 0.552602 -0.049305 -0.058937 -0.483239 0.587208 0.004693 0.104574 0.578370 0.212401 0.766486 0.459124 -0.415507 -0.020828 -0.088107 -0.075936 0.637676 -0.733771 -0.632569 0.295608 0.311039 -0.120862 -0.358311 0.046845 0.302858 -0.864031 0.185203 -0.345143 0.279919 -0.038082 0.660823 -0.699577 -0.241576 1.450075 0.058789 -0.205177 0.502842 -0.252354 -0.174714 -0.750876 -0.475901 0.797330 -0.403558 -0.203976 -0.877803 -0.161839 0.913625 0.128552 -0.149146 0.604632 -0.402188 
学 2.029281 0.041962 0.985973 0.217789 0.402767 1.166479 -0.956782 -0.528824 -0.353856 -0.057255 -0.130575 -0.085131 1.564575 1.331900 -0.385681 0.791181 1.816873 -0.757519 -0.304104 -0.850551 -0.915673 -0.752164 -0.635936 -0.403987 0.313144 -1.489147 0.181852 -0.269522 -1.032673 -0.185090 -0.586962 0.837160 0.097587 -0.311851 0.707213 -0.006037 -0.823164 -1.152118 -1.648298 -0.360457 -2.275227 1.776929 -1.273519 -0.061262 -0.264141 2.219662 -0.604465 -0.454641 0.622329 0.047771 
重 -0.504144 -0.305928 0.313719 -0.557947 -0.160631 0.091269 0.077027 -0.397930 -1.045962 -0.537169 0.423945 0.026591 -0.304296 -0.825448 -0.116597 -0.806323 -0.425419 0.370592 -0.530824 -0.207024 0.816538 -0.126398 0.591801 0.463477 1.344765 0.803977 -0.513952 0.268783 -1.281769 0.607598 0.156503 -0.624315 -0.788283 0.010854 0.769020 -0.483768 -0.278410 -0.530926 -0.417539 1.090918 -0.332742 0.858524 -0.596793 0.062642 -0.344920 0.785026 1.047841 0.584276 -0.039709 0.310502 
通 -0.910970 -0.234207 -0.079924 0.962830 -0.574115 -0.225509 -0.380521 -0.215285 0.009054 1.096252 -1.226698 0.801051 -0.275846 1.547899 -0.915580 -0.516328 -0.965539 -0.536076 0.101219 -0.444577 1.163814 -0.387332 0.949671 -1.978216 -1.757615 0.160372 1.051552 0.105312 0.143574 -0.033409 -0.238663 1.369166 1.241415 -0.637410 0.582023 -0.174381 -0.679765 -0.053242 -0.978305 -1.364661 0.502436 0.050057 0.021739 0.729722 -0.719873 0.830611 0.239156 0.705857 -0.499333 -0.392760 
得 0.788706 1.243941 0.741547 -0.615280 1.029805 0.429094 0.260701 -0.808288 0.090699 0.394559 0.626695 0.130062 -0.538673 0.926214 -0.247600 1.077196 0.504720 0.748674 -0.055235 -0.036566 -0.768496 -0.105903 1.096561 0.049228 0.535509 0.486094 0.271934 -0.499227 0.332417 -0.918178 0.569855 -0.792892 -0.247979 -0.915283 -0.914941 -0.243958 -0.744660 -0.010758 1.140370 0.162602 0.446945 -0.216926 0.698500 0.376815 1.080454 1.462874 0.599949 0.070980 0.974670 1.056058 
度 -0.660506 0.570343 1.161767 0.224118 0.463416 1.414061 -0.512354 -0.154500 -0.897276 0.060749 0.371301 0.227344 0.430760 -0.143513 -0.585131 -0.973077 -0.644337 -0.086312 0.442727 -0.302675 0.226262 0.318134 1.528233 0.651895 1.196129 0.285273 0.975983 -0.555174 -0.248558 -0.433354 -0.679338 -0.519322 0.083831 -0.340529 -0.056726 -0.313637 -0.776611 -0.325798 0.214477 1.020782 0.680263 -0.094637 0.111034 0.072653 -1.605376 -0.090410 0.041741 -0.472173 -0.274944 -0.695442 
被 0.118859 1.547229 0.361650 -0.385071 -0.443192 -0.022653 -0.151656 0.277242 0.797333 0.244407 -0.888867 0.218254 0.358747 -0.851459 0.502897 -0.320628 -0.635377 0.390024 0.904677 0.076916 -0.102656 0.676977 -1.608900 -0.277338 -0.685603 0.149577 -0.301269 1.017367 -0.041994 -0.866108 0.149377 0.319008 -0.222025 -0.289353 0.241608 -0.410650 0.504475 1.080268 1.201904 -0.677695 -0.449930 0.246919 -0.042344 -0.272164 0.076150 0.404621 0.340179 0.053650 0.682204 0.337907 
化 -0.800999 -0.842870 -0.253873 -0.003215 0.228411 1.014799 -1.089185 -0.466533 -0.284926 -0.614575 1.685400 0.074343 1.140544 1.080528 -0.712838 -0.627493 -0.515571 -0.214962 0.132287 0.539121 1.997451 0.160289 0.807876 0.253428 0.406947 0.126592 0.567493 -0.429232 0.162107 1.419633 -1.345799 -1.443042 0.104460 -0.267144 0.233217 0.379467 -0.005861 -0.012613 0.380417 0.483250 -0.792206 0.789976 0.368372 -0.248213 -0.212725 1.757973 0.378234 -0.311687 -0.773255 -1.913617 
网 -1.599283 1.128276 0.276088 1.457940 -0.170505 -2.627047 -0.574727 1.880102 0.857133 0.980363 -0.776176 0.004000 0.915802 0.214431 -1.280402 0.150472 -0.528877 -0.708826 -0.237312 0.324165 0.600137 1.138438 0.728517 -0.474505 -2.065848 1.312890 -0.858590 -0.835210 -0.934388 -0.892139 -1.129670 1.499934 1.161024 -0.300604 -0.498832 0.162523 0.330522 0.544555 0.922187 -0.636516 -0.596815 0.016530 -0.735401 -1.192081 -0.368931 -0.192436 -0.827251 0.101677 0.794803 0.161386 
元 -1.162655 0.562895 0.940055 -1.799584 -0.468853 1.128399 1.288889 -1.472332 -0.083687 0.456914 -1.751637 1.158998 1.727792 -1.063935 -0.200466 0.688103 0.365985 1.098884 1.304856 -0.872282 -1.484619 1.987486 1.169698 -0.603930 -0.034753 -0.761376 0.660546 -1.117002 -0.372948 0.992760 0.771321 1.064758 -0.040664 1.246827 2.143109 0.122844 -0.661966 -0.514557 0.700550 1.593478 0.096024 -0.969298 -0.097849 0.735470 4.114297 -0.479490 0.875112 0.213969 -0.015017 0.283958 
本 -0.419656 0.047929 -0.315142 0.350066 -0.232948 0.753197 0.796453 0.743239 -0.580695 0.179022 -0.825799 -0.494801 -0.937987 0.453419 -0.152157 0.202367 -0.027761 0.012860 -0.267677 0.469966 -0.394517 0.227464 0.585357 0.192364 0.242801 -0.309982 0.229437 -0.466010 0.649104 0.474315 -0.421589 0.207600 0.401507 0.116772 0.778183 -0.697377 0.705927 -0.075739 -0.247437 0.282535 0.117220 0.338996 0.194786 -0.425619 -0.845358 0.692454 -0.609274 0.245282 0.789573 -0.779426 
合 -1.304953 -0.247382 -0.077829 -0.583775 0.241331 0.375979 -0.475988 -0.771974 -0.031264 1.360718 0.274218 0.615686 -1.379109 0.346763 -1.691911 -0.078991 -1.277912 -0.136821 -0.808257 -1.349725 0.968925 0.166054 -1.318783 0.574289 -0.666368 0.281832 0.944247 -1.561214 0.306567 0.943404 0.274312 -1.207060 1.640339 1.476478 0.129217 -0.051429 -0.251233 -1.073733 -2.911860 0.563636 0.958603 0.558994 0.777766 -0.253514 0.316918 0.464294 0.832739 -0.058853 -0.693227 -0.807090 
制 -0.284991 -0.085395 0.803496 0.534311 -0.585483 0.757224 -0.136617 -1.676420 -0.054226 -0.165765 0.312382 0.182012 1.126461 -0.751204 -0.395326 -1.325172 -0.879230 0.173831 0.080167 -1.986085 1.219692 0.269483 0.736930 1.528592 0.222898 0.042114 1.319333 -0.403641 -0.499466 0.525437 0.845772 -1.118032 0.315100 -0.706193 0.625286 -0.524181 -0.863321 -0.013735 -0.870558 1.064209 -0.245874 0.457481 1.079307 -0.462483 -1.355324 0.738812 0.430963 0.674046 -0.315102 -1.904521 
好 0.292585 -0.389083 0.447305 0.286734 -0.444703 -0.631470 -0.528675 -0.182919 -0.612302 0.833476 1.692950 -0.258730 0.205344 0.111732 -1.460977 -0.042839 0.185414 0.423541 -0.302536 1.029745 -0.497711 -0.977762 1.141764 0.449601 -0.204823 0.483840 -0.333073 -0.107398 0.268059 -0.640014 0.309732 -1.028017 -0.736049 -0.347324 -0.926616 -0.502043 0.102555 -0.992742 -0.059858 -0.415149 -0.092965 -0.435370 -0.202600 -0.037298 -0.183236 0.922786 0.214545 -0.029732 0.245993 1.025825 
当 -0.210405 1.121786 0.212131 0.502198 0.371347 -0.782338 -0.005165 -0.048367 -0.471506 0.617155 0.034442 -0.252116 -0.430139 0.080204 -0.071117 0.496589 -0.403600 -0.376601 0.214857 -0.031143 -0.716694 -0.588394 -0.390341 -0.235331 0.235753 -0.056409 -0.323786 -0.242276 -0.221829 -0.450510 0.375901 -0.845651 0.409673 0.664487 0.192187 0.048730 -0.143118 0.130887 -0.067773 -0.440401 0.550678 0.076059 -0.112119 0.011653 -0.123919 0.909416 0.013403 0.154919 -0.087598 0.551005 
保 0.103753 -1.638723 1.003702 0.463167 0.442733 0.560958 -0.518121 -0.543086 -0.450968 0.072221 0.274328 1.341938 0.298112 -0.276366 -0.124150 -0.120897 -2.465286 -1.379176 1.770785 0.975662 -0.677975 0.876265 0.089449 -0.037717 0.483621 -0.998919 0.895903 -1.912666 -0.582062 1.287028 0.293785 -0.413880 -1.899614 -0.981455 1.027059 0.646325 -0.481100 -2.143917 0.273755 0.904775 1.512465 0.177148 0.035930 -1.364494 -0.634945 1.665460 0.120316 0.850155 1.887779 -0.543200 
员 0.330093 0.795551 0.816026 0.594999 1.014136 0.980629 -0.250293 0.248359 -0.539971 0.071714 -0.377423 -0.804507 -0.165674 -0.947122 -0.107376 1.113125 -0.531782 -1.434271 0.059560 -0.004919 0.971116 -1.162667 -0.886139 -0.315975 -0.575160 0.513475 0.675251 -0.117651 0.299759 -0.305870 0.309200 0.806436 0.907800 0.648240 0.715446 -0.098507 -0.428629 -0.027965 -0.822431 -0.701507 -0.925512 -0.314132 -1.143653 0.781209 -0.861650 0.564142 0.240844 0.703679 0.617599 0.138390 
名 0.365710 1.012110 -0.474448 0.147520 1.121834 0.848512 -0.465840 1.564373 0.604222 0.574744 -0.198691 0.314483 1.482393 -0.147474 0.216077 0.981925 -0.892149 -0.125428 0.205545 -0.022750 -0.191875 0.437599 -0.476645 -0.370090 -0.286321 -0.452679 0.064117 0.197415 0.474086 -1.180332 0.018371 0.935678 0.653013 0.427526 1.268801 -1.058373 -0.331946 -0.377420 0.099260 -0.285829 -0.421492 0.188127 -0.914734 -0.007197 0.877302 0.241692 -0.738885 0.326817 -0.161351 -0.271219 
外 -0.463462 0.694615 -0.343744 -0.352733 0.097948 -0.295063 -0.131125 1.551929 -0.094869 0.405317 0.061900 0.345479 -0.720616 -0.065593 0.289199 -0.219626 0.039923 -0.926727 0.332762 -0.497828 0.129559 0.943626 -0.585907 0.380292 -0.396152 -0.823629 0.039152 -0.291953 0.741685 -0.544861 -1.083493 0.410285 0.795463 -0.608126 1.167833 -0.007000 -0.739124 0.410690 -0.589824 0.130732 0.593906 -0.000533 -0.115030 0.189621 0.323451 0.646709 0.219519 0.039512 0.337649 0.039330 
心 0.521695 -0.508221 0.884883 -0.601334 0.962938 -0.439497 -0.227345 0.382948 -0.726572 0.718395 1.142471 0.071411 -0.595172 0.119240 0.303712 0.223593 0.834863 -0.392732 0.533252 0.527579 0.449032 -0.375055 0.378334 0.708937 -0.165639 -0.259889 -0.536707 -0.215567 -0.675569 0.373099 0.047002 -0.627048 -0.406688 -0.767812 -0.198784 -0.021109 -0.025200 -0.838754 -0.692384 -0.413243 -1.103516 -0.335349 -0.511542 -0.131863 0.066663 0.167119 0.191908 -0.338702 0.119323 0.745095 
而 0.373441 0.441907 -0.884292 -0.718520 0.182298 0.119701 0.828900 -0.035028 -0.261700 0.379644 0.704253 0.689048 -0.543066 -0.356230 0.254491 0.234137 0.018092 0.310467 0.515991 -0.279758 -0.625836 -0.483970 0.524286 -0.047473 0.251251 -0.575791 -0.432681 0.315398 0.191485 0.227475 -0.173316 -0.375753 0.039855 -0.956417 -0.092160 -0.717827 -0.279821 1.017384 0.785140 -0.010466 0.544970 0.175149 0.391408 -0.198949 -0.479291 0.510568 -0.142157 -0.292120 -0.657106 0.239882 
点 -0.743837 -0.189024 1.109969 -0.202285 -0.199842 -0.978691 0.173891 0.091131 -0.885414 0.403026 -0.486875 -0.789235 1.143869 -0.004604 -0.263995 -0.527033 0.597088 0.451320 -1.053284 0.259081 -0.139479 0.852559 0.394443 0.816595 1.012631 0.643647 0.082012 -0.422289 -0.246292 -0.637593 -0.372859 -0.153465 -0.102581 -0.001167 0.152903 0.384530 -0.784955 -1.185900 0.489377 -0.330581 0.321883 0.777583 -0.282380 -0.235455 -0.369271 0.733419 -0.297675 0.323064 -1.026986 0.727948 
产 -1.608918 -0.503647 -0.269957 -0.522660 -0.602194 1.464820 -0.151856 -1.277384 0.051374 0.022738 -0.339563 0.435637 0.595216 -0.949164 -0.561490 0.339274 -0.392668 -0.839821 0.328400 -0.119581 0.833706 1.607020 0.046068 0.525416 0.464872 -0.617104 1.039323 -0.806110 -0.547968 2.301611 -0.045691 -1.131794 0.112065 0.015143 -0.339393 -0.000447 -0.880818 0.308852 -0.515355 0.039214 -0.595958 0.908469 1.192038 -1.308230 0.654312 1.821522 0.112812 -0.248054 0.415614 -0.803833 
道 -0.934886 -0.349740 -0.693263 1.147281 -0.392770 -0.623214 0.269826 0.704727 0.139706 0.501130 -0.436437 -0.961646 -0.635557 1.341571 -0.326036 -0.918040 0.357383 -0.080863 -0.696511 -0.351896 -0.101033 -0.046965 0.685951 -1.374637 -1.719610 -0.977743 -0.060869 -0.694855 0.274893 -2.323890 -0.514903 -0.455463 0.318901 -0.502679 0.875777 0.350733 -0.075210 -0.361550 0.203191 -0.190436 -0.393606 -1.067029 0.321730 0.274299 -0.568685 0.404817 -0.245934 0.200512 0.430430 -0.436491 
目 -1.210544 0.577388 -0.147146 -1.345284 -0.122344 -0.320025 -0.415721 -0.195640 0.031437 0.473582 -0.124803 -0.272826 0.636860 0.747086 -0.419318 -0.565475 0.178058 -0.636650 0.131780 -0.618123 -0.373947 0.726285 -0.071542 0.035264 0.486535 -0.235847 0.294217 -0.561832 0.195029 -0.000622 0.808307 -1.485642 1.152054 1.559576 0.222386 -1.007153 0.195653 0.189741 -0.392401 0.856198 -0.061829 0.701309 0.013760 0.370654 -0.722480 0.989477 -0.107772 2.030890 0.478193 -0.295339 
所 -0.186207 0.493988 0.367484 0.296075 0.491210 -0.083289 0.117538 0.896565 -0.133661 -0.227702 0.266689 0.437480 0.934709 -0.258155 0.529017 0.188593 0.007894 -0.759693 0.240975 -0.443218 0.061418 -0.198802 0.160153 -0.247941 -0.513425 -1.022457 -0.113368 0.721754 0.408655 -0.374411 -0.044077 -0.877584 0.667949 -0.322064 -0.454718 0.584246 -0.609085 0.424167 -0.771209 0.528528 -0.869926 -0.375157 -0.009692 0.716238 0.308663 1.820158 0.925843 0.522404 0.497072 0.228821 
7 -1.471750 0.657268 0.658622 -0.704549 0.788835 1.041257 0.529964 -0.030788 0.425214 -0.232907 -2.279564 0.067379 0.728084 -0.487414 -0.457968 0.274067 -0.984513 0.551646 -0.583217 -0.041846 -0.436374 0.049898 0.486585 -0.990026 1.372584 -0.165850 -0.718219 -0.505377 -1.138308 -0.359099 -0.485338 0.699488 0.748578 0.798343 1.348983 0.763597 -0.169283 -0.359355 0.456038 0.140180 0.737539 0.050021 -0.706905 0.358981 1.801147 -0.898659 -1.140415 0.231100 -0.758620 -1.410744 
《 -0.866765 0.279926 -1.979648 0.835903 -0.704618 -0.621655 0.754074 -1.051475 0.545910 1.001862 -0.191140 -0.787682 -0.465175 1.301206 -2.153156 0.179675 0.225526 -0.114937 0.058563 -0.947333 0.233562 -0.579649 0.820905 1.084066 -0.936693 -0.849471 0.572311 1.282904 -0.091400 -2.159516 1.105017 -0.255232 1.419053 0.855073 0.548664 0.466155 0.703056 0.545208 -0.256128 2.158074 0.248744 0.219633 -0.727541 0.577041 -1.578031 -0.862960 -1.289019 0.344926 0.408074 -1.207904 
》 -0.702036 0.863129 -1.598819 0.716191 -1.375345 -0.354420 0.115105 -0.497876 0.335544 1.279729 0.158002 -0.809828 -0.114007 1.483254 -2.289983 0.164926 -0.358003 0.254216 -0.024249 -0.899392 0.012377 -0.764831 0.718252 0.611216 -1.023492 -1.150202 0.005344 0.842380 0.161142 -1.746300 1.676816 -0.146677 1.075939 0.934746 0.560436 0.361633 0.836556 0.042844 0.404836 1.429504 -0.150256 -0.494505 -0.649769 0.143363 -2.108158 -1.507665 -1.037234 0.225218 0.189838 -1.681553 
女 0.417488 1.094004 -0.330917 -1.162337 0.619085 -0.131148 -1.241738 2.064398 0.710577 1.677185 0.551012 0.366593 0.295959 -0.932816 -0.308098 1.059958 0.417013 0.135552 0.522990 0.270438 -1.199605 -0.034399 -0.896070 0.097496 0.215552 -0.338464 -1.570013 0.821642 0.207870 -0.905570 1.046794 -0.726832 -0.142125 0.436415 -0.527397 0.038117 1.146412 -0.892832 -1.204731 -0.466460 0.149258 -0.705188 0.074756 -0.760024 -0.433059 0.629696 -1.587534 -1.034233 -0.161681 1.063567 
起 -0.162708 0.216521 0.334822 0.792790 -0.467870 -0.568024 0.692752 -0.830284 -0.611444 1.019951 -0.241260 -0.926879 -0.018288 -0.233903 0.136087 0.118906 -0.741958 -0.060788 0.301700 0.012574 0.513597 -0.422756 0.028983 0.536966 -0.305349 -0.457124 -0.492634 0.267180 -0.119250 -0.669651 -0.019188 -0.366497 -0.346068 0.224649 0.176010 0.162103 0.745752 0.022212 1.055130 -0.730306 0.305422 -0.001778 -0.622806 -0.683410 0.381812 -0.049099 0.199405 -0.197413 -0.320944 0.813716 
之 0.014803 0.462890 -0.337111 -0.235441 -0.135207 -0.088714 0.063365 0.461764 -0.274243 -0.528254 0.449845 0.227297 -0.314295 -0.305141 0.672809 0.403393 0.429514 0.427262 0.275012 -0.126758 -0.462326 -0.190811 0.011932 0.131234 0.115057 0.094944 -0.350142 -0.487333 0.150884 -0.297951 -0.557517 -0.012609 0.081867 -0.148446 0.385252 -0.225373 0.513664 0.318298 0.991640 0.547096 -0.069218 0.252183 0.137658 -0.054515 -0.438264 0.366171 -0.123058 0.218662 -0.233038 0.241691 
性 -0.537460 0.372672 -0.127981 -0.620346 0.948680 0.774296 -0.614375 0.600542 -0.490934 1.324739 0.737988 0.557683 -0.024520 0.133571 -0.428164 0.165022 -0.062586 0.311804 -0.464639 -0.155346 -0.396353 -0.471832 -0.328280 0.822191 0.703967 -0.214461 -1.030574 -0.475701 0.611118 1.309509 -0.034634 -0.380152 -1.075652 -0.292024 -0.042579 -0.952031 -0.300068 -0.470471 -0.610068 0.086237 0.097074 -0.760135 0.359328 -0.990794 -1.680498 1.187506 0.113266 -1.419158 0.190371 -0.274888 
情 -1.079280 1.436938 0.248797 -0.902203 -0.927221 -0.476962 -0.109599 0.938743 -0.580001 2.024564 0.750588 -0.909934 -1.549691 1.299795 -0.272509 0.391952 -1.077280 -0.483760 0.474690 0.017465 -0.117125 0.150205 -0.558894 -1.109371 0.627969 -0.102118 -0.548925 0.850093 -1.151378 -0.767196 -0.739107 -1.416903 0.055001 0.797259 -0.867200 -2.250400 -0.703283 -1.652086 -0.118701 -0.333919 -0.615022 -0.893326 1.110593 -0.630214 -1.686566 0.039175 1.184344 -0.978782 -0.622188 0.007339 
据 -1.585605 -0.314387 -0.165643 0.856818 0.937706 -0.707606 0.181381 2.797436 -0.414320 0.388188 -1.057135 0.050321 -2.538917 1.191906 -1.508979 -0.992070 0.523845 -1.067743 1.299326 -1.379267 1.114264 0.564592 1.670299 -1.201946 -1.126148 -1.502598 -0.276457 -1.771855 -0.067089 -0.779347 -0.135401 0.948901 0.475645 1.489126 -0.105018 -1.468949 1.212495 1.318368 -1.599256 -0.277071 -0.552484 -0.153722 0.533949 -0.913156 -0.431309 -0.233403 -0.881873 1.875974 1.033761 -0.522252 
内 -0.284819 0.394337 0.058129 0.428679 0.063867 -0.167856 -0.415455 0.772004 -0.929030 0.092691 -0.096007 -0.265042 0.371928 -0.982456 -0.285009 -1.199177 -0.170751 -0.244491 -0.136041 -0.388893 0.418316 0.846361 -0.537993 -0.228777 -0.408190 -0.711202 0.664807 0.353189 0.198350 -0.026164 -0.917795 -0.038318 1.033042 -0.734553 -0.058688 0.342049 -0.074351 0.255171 -0.865547 0.272109 0.024733 0.362213 -0.314158 -0.407759 -0.195984 0.003255 0.631678 0.076038 -0.020755 -0.579579 
但 -0.196867 0.927715 0.474723 -0.176916 0.406745 -0.460470 0.670658 0.245733 -0.656700 0.810512 0.513374 0.272799 -0.386136 0.142246 0.094377 0.649823 0.619103 0.561359 0.327079 -0.593736 -1.152027 -0.735195 0.672565 -0.569989 -0.088275 -0.643627 0.099105 0.382772 0.439975 -0.080777 -0.442400 -0.535704 -0.291944 0.022594 -0.675916 -0.705152 -0.265035 0.956330 -0.041213 -0.183031 -0.173860 0.423018 0.532074 0.067867 0.025644 0.971489 -0.149845 -0.225675 0.610467 1.195958 
提 -0.536510 -0.587743 1.619305 0.930487 0.661382 0.186738 -1.256514 1.484010 -1.029924 1.170397 0.052404 1.040382 0.409365 0.013762 -0.131773 0.067062 -0.785828 -0.286222 0.454996 0.622542 0.316250 -0.895542 1.237259 -0.134123 -0.961415 1.235936 1.037804 -1.507021 -0.694584 1.530708 -0.319660 0.258952 0.112583 1.189154 0.081645 -0.059455 -0.804943 0.158362 0.256577 0.618800 -0.635819 -0.015622 0.092617 0.192076 -1.149607 0.638685 0.331479 0.328501 0.579443 0.200091 
间 -0.464258 0.548675 0.765645 0.039435 -0.080401 -0.832585 -0.100054 -0.243969 -0.867583 -0.064975 -0.181762 -0.414475 0.204759 -0.006461 0.359408 0.233037 -0.037531 0.265726 0.219232 -0.507829 -0.526860 -0.390937 -0.188195 -0.296820 -0.006048 -0.832655 -0.290300 -0.666830 0.353399 -0.205465 -0.936268 0.464481 0.026254 -0.144438 -0.013706 0.792221 -0.051168 -0.051817 0.672154 -0.362511 0.930569 1.121300 -0.409431 0.963107 0.388695 -0.102521 0.437248 -1.109313 -1.046542 -0.299045 
从 -0.236085 0.062064 0.309008 0.229659 0.058002 -0.582057 0.296024 -0.512856 -0.990571 -0.084150 -0.385320 -0.204796 -0.017297 -0.288123 0.136210 -0.114491 -0.149956 -0.089435 -0.072814 -0.091780 0.152261 0.100375 0.224700 -0.376932 0.033074 -0.604333 0.170861 0.170545 -0.599304 -0.344517 0.110190 0.173046 0.201113 0.370716 0.162554 0.166876 0.683051 0.183821 0.199470 -0.744774 0.294812 0.702515 0.116513 0.092294 0.124493 0.172598 -0.905933 0.440905 -0.505734 0.370749 
务 -0.290967 0.522378 1.903817 1.092875 0.170878 0.359198 -0.599216 0.113345 -1.199154 -0.561209 1.528675 1.519176 -0.152583 -1.630606 -0.879954 -0.580142 -1.093381 -3.296514 0.544540 0.516029 1.503724 0.485133 0.593536 -0.346448 -0.381457 0.121949 1.439478 -1.152979 -0.732952 1.529638 0.876816 0.556607 -0.003163 0.226535 1.512105 -0.706488 -0.767522 0.365530 -1.474669 -0.018421 -1.058485 -0.464894 -0.540910 1.391358 -0.730959 1.382338 -0.528342 0.167317 0.174254 -1.143930 
海 -0.193992 -1.176150 -0.770268 -0.628464 0.057339 -0.693641 0.575872 0.159908 -0.520323 -1.352809 -0.278340 -0.969843 -0.789179 0.114535 0.343948 0.387879 -0.859134 -1.189373 -0.054718 -0.583091 0.864363 0.944553 0.640631 -0.959150 -1.632860 -0.651457 -0.807388 0.646342 0.406919 -0.095849 -1.076865 0.844468 0.650975 -0.126622 0.347490 0.916712 0.835262 -0.938843 -0.633804 -0.246715 0.149278 0.418517 -1.091477 0.430273 0.495966 0.503762 -0.766017 0.275318 -0.026660 -1.424606 
美 -0.165930 0.263483 -0.874398 -0.518713 -0.240548 0.853855 0.550683 0.732398 0.609416 0.885912 0.557399 -0.562444 -1.083743 0.657524 -0.368258 -0.007890 0.180423 0.160632 -0.130177 -0.504036 -0.515257 0.922746 0.987182 0.267274 -0.305428 -0.113293 -0.267414 -0.277528 -0.151187 -0.186773 -0.545771 0.447513 0.659016 -0.218119 0.613266 -0.124970 -0.038640 0.317062 -0.714573 0.891151 -0.078249 -0.565936 -0.739347 -0.854210 0.398368 0.661311 -0.029152 0.302032 0.297361 -0.000358 
着 0.457939 0.011448 0.828163 0.740296 0.450124 -0.593565 -0.241849 -0.418606 -0.480933 0.450027 1.330190 0.459530 -0.678550 -0.587435 0.665445 -0.437776 0.328433 0.176909 -1.063875 1.065471 0.295033 -0.027822 -0.727416 0.225228 -1.912202 0.130103 -0.566763 0.595250 0.747515 -0.373006 0.233381 -0.877427 -0.479954 -0.132129 -0.461266 -0.147041 1.230491 -0.370109 0.516111 -0.180101 0.922182 0.526144 -0.208237 -0.555818 0.302561 0.091109 -0.132515 -0.226007 -0.234420 1.515085 
位 -0.615718 -0.189460 0.693532 -0.280964 0.246069 0.669227 -0.318229 1.059184 -0.431298 -0.712005 -0.070050 1.129851 0.384685 -0.544706 -0.792398 0.468936 0.094899 -1.418428 0.466492 0.675276 -0.640793 0.100817 0.132851 0.240837 0.029920 -0.379089 0.408699 0.083475 1.088918 -0.486772 0.235986 0.895537 1.113584 -0.227353 0.422870 -1.024717 -0.556418 -0.655516 -0.853592 -0.408458 0.144335 0.540656 -0.630685 0.852470 0.105400 0.622850 -0.222112 0.380930 -1.020661 0.605089 
入 -0.610566 1.348279 0.916381 -0.725413 0.660252 1.332706 0.848419 0.415405 -0.910862 0.535691 -0.444117 0.099000 1.060972 0.274586 0.414089 -0.554573 -0.105737 -0.280866 -1.147821 0.209210 0.615104 1.225906 0.225979 0.321623 -0.982672 -0.565860 0.530142 0.210315 0.546994 1.320798 -0.781995 0.502908 0.103429 -0.359244 0.035121 0.620646 -0.535604 -0.063490 -0.434996 0.606609 1.124646 0.153962 0.813767 1.156253 -0.349013 1.308050 -0.398720 1.355078 0.172187 -0.757187 
平 0.321185 -0.063383 1.688788 0.348509 -0.158603 0.039693 1.257942 -0.002170 -0.182163 -0.170501 0.803020 0.591202 -0.559076 -0.729101 -0.366794 -0.837818 -0.185421 0.806488 -0.960876 0.006931 0.265858 0.297491 0.887277 -0.827845 0.538314 -1.009512 0.133705 -1.878461 -0.068656 1.595012 -1.443004 0.980459 0.988986 -0.721978 0.792054 0.998858 0.109436 -1.287511 -0.448018 0.200420 -0.210779 -0.786472 0.206736 0.648039 -0.074313 -0.453274 -0.087067 -0.795861 0.272702 -0.855808 
已 -0.416467 0.726916 0.213171 -0.618223 0.110220 0.417156 0.428994 -0.469575 -0.159667 -0.205783 -1.034239 0.150844 0.058436 0.455963 0.276418 0.765392 -0.110940 -0.509171 0.426189 -0.756686 0.080912 0.345154 -0.575415 -0.552102 -0.152133 -0.766540 -0.240652 -0.179759 -0.485069 0.282866 -0.684815 -0.513111 0.319236 0.146231 0.159483 -0.830721 0.473222 0.361017 0.357524 -0.452983 -0.114924 0.346058 0.353606 0.470170 -0.311300 0.953813 -1.236752 0.746767 -0.392080 0.100657 
改 -0.234643 -0.527213 0.496987 1.021048 0.150670 0.600098 -0.599764 -1.059803 -0.409998 0.201389 0.029672 0.082776 0.854816 1.378703 0.328877 -0.524883 -1.170511 -0.440331 -0.456168 -0.148418 2.013692 0.605036 1.798428 2.762694 1.803216 0.035531 0.121306 -2.115079 0.965432 -0.243047 -1.218688 -1.737949 -0.812148 -1.726462 1.628864 0.885541 1.625711 0.698005 -0.112039 1.298363 0.327372 0.931048 0.806796 0.216446 0.014276 1.680713 -0.506872 1.323678 0.033609 -1.547996 
此 0.156616 0.377718 -0.271864 -0.253104 0.298387 -0.896256 0.586949 0.238731 -0.375549 0.485860 -0.570170 0.322610 -0.041868 0.687745 0.228672 0.532009 -0.424649 -0.416968 0.850114 -0.576069 -0.728535 -0.296400 -0.401471 0.068597 0.448532 -0.528791 0.014737 -0.105214 0.122013 -0.659366 -0.832286 0.139302 0.898430 0.520310 0.185396 -0.771643 0.185934 1.141463 0.180207 -0.214043 -0.240794 -0.249020 -0.111806 -0.054109 -0.695807 0.518741 0.207695 0.637749 0.109719 -0.055648 
展 -0.761026 -0.612360 -0.099277 -1.502814 -0.467312 0.343236 -0.560828 -0.994923 -1.037864 -0.857060 0.217194 -0.666081 0.302197 1.136511 -0.679329 1.296605 -0.438646 -0.623855 -1.589013 0.464432 3.003721 -0.589693 0.470858 0.559920 -0.421954 0.841910 0.186677 -2.332084 -1.124831 1.272959 -1.715846 -1.550589 -0.387407 0.380111 0.705611 0.229543 -0.884345 -0.292472 0.980489 -0.373189 0.316421 0.368516 0.653845 -0.566731 0.042894 1.562935 -0.250534 0.214292 0.038644 -0.729433 
两 -0.718181 0.964464 0.326001 -0.538611 -0.324168 -0.101373 -0.311895 0.705721 -0.181103 0.280568 -0.429976 0.258832 0.092101 -0.760596 0.478073 0.278424 0.228214 -0.188945 -0.320519 -0.684900 -0.464268 -0.206648 -0.119951 0.202281 -0.049582 -0.093947 0.227218 0.457368 0.784987 -0.504402 -0.511802 0.409935 0.489855 0.436854 0.245718 0.101435 0.855696 -0.922909 0.053308 -1.049530 0.517304 0.411678 0.103029 -0.143415 0.483968 0.021275 -0.259856 -0.276114 -0.488299 0.269177 
示 -0.527619 0.168930 1.365095 1.107606 1.375180 0.106096 -0.563562 1.835850 -0.330304 -0.258400 0.570433 -0.104950 -1.161499 1.710208 0.562012 1.217992 0.156470 0.299281 0.164039 -0.196730 0.610874 0.736278 0.275777 -1.050328 0.601360 -1.459720 0.718139 -0.997581 -0.223158 -0.668120 0.042599 0.133463 1.989382 0.863687 -1.270281 -0.873591 1.564564 0.374068 -0.933159 0.338120 -0.769226 -1.526043 0.079408 -1.714198 -0.832188 0.432550 0.420912 0.298086 0.331926 0.077793 
三 -0.972420 -0.326942 -0.461362 -0.488798 -1.133637 0.932252 -0.336254 0.129020 -0.864507 -0.599567 -0.183243 0.301332 0.098691 0.122266 -0.546900 0.992559 0.673956 -0.253933 0.001445 -0.471157 -0.820929 -0.094392 0.269767 0.457455 0.151423 0.249009 0.954381 -0.102002 0.350474 -0.141890 -0.717226 0.057769 0.726652 0.796789 -0.008895 0.162857 1.200056 -1.770712 -0.076441 -0.608965 0.745652 0.193508 -0.229008 -0.411500 -0.373586 -0.179427 -0.593283 0.708621 -1.296080 -1.061542 
万 -1.018938 0.812390 0.146368 -1.548168 0.534949 1.213776 0.783527 -0.303753 0.047443 0.999931 -1.915795 0.904216 1.959124 -1.329253 -0.982474 0.085043 -0.229180 0.974844 0.784467 -0.673538 -0.105041 1.105621 0.902382 -1.293674 -0.593878 -1.168764 -0.087307 -0.871085 -0.512311 0.741253 0.118811 0.545773 0.323161 0.947513 1.984650 -0.498909 -1.141886 0.678337 0.019720 -0.026890 0.249155 -0.416114 -0.561417 0.901393 3.387312 -0.895725 0.517458 -0.478220 0.321931 0.596398 
资 -2.361443 0.283708 1.018941 -0.959317 1.293478 0.388798 -0.382118 -0.556451 -0.587074 0.845731 -1.085621 0.605031 1.247140 0.318153 -0.059067 -0.024046 0.379066 -1.178736 0.883385 -0.118634 0.468241 2.594485 0.466859 1.443541 -0.105879 0.758074 1.266617 -0.691748 -0.015692 1.939129 -0.129607 -1.433082 1.286440 -0.530774 2.125058 0.009327 -1.207745 1.349217 -1.304515 -0.316153 0.782972 -1.372964 1.595913 -0.102962 0.532281 0.663905 -0.770066 0.084556 0.775972 -1.466332 
相 -0.205060 -0.623825 0.838382 -0.669950 0.743317 -0.516326 -0.234539 1.012289 -0.237044 0.814976 -0.197772 -0.048170 -1.214460 0.574561 -0.624683 -0.396247 -0.273747 -0.846229 1.220112 0.361210 -0.078161 -0.195408 0.110856 0.871762 -0.193667 0.780147 0.613982 0.377780 0.744118 0.600833 -0.509546 0.196046 1.277638 0.410508 -0.732300 -0.134337 0.730011 0.072831 -0.073516 0.188098 1.075111 -0.216479 0.774737 -0.768818 -0.306785 1.017761 1.014430 0.213380 0.338127 0.215574 
并 0.334215 0.619234 0.391307 -0.414297 -0.407530 -0.133942 0.367488 0.413698 -0.777638 0.568059 -0.139137 0.682814 -0.208440 -0.040965 -0.095050 0.401803 -0.899068 -0.451953 0.502032 -0.158210 0.050740 -0.700882 -0.425237 -0.185823 -0.617150 -0.082874 -0.185800 0.201601 0.204115 0.063644 0.190105 -0.077278 -0.173047 0.144009 -0.048102 -0.472141 -0.564855 1.305872 0.092889 -0.109185 0.080798 -0.204621 0.829450 -0.552141 -0.412367 0.971382 0.323930 0.221172 0.424331 -0.014243 
正 0.783230 0.321700 0.562870 0.724429 -0.551803 -0.195700 1.047265 0.060961 -1.087713 -0.207972 0.291043 -0.447268 -0.031359 0.286157 -0.570715 0.104682 -0.537365 -0.145641 -0.125141 0.344052 0.444397 -0.489251 -0.256527 -0.861666 0.363395 -0.622823 -0.315974 -0.155899 -0.073213 -0.055614 0.179042 -0.532300 -0.023706 -0.366428 0.109044 -0.216676 1.060006 0.651956 -0.295184 0.470327 0.266352 0.126498 -0.089661 0.044257 -1.086701 1.101030 0.616511 0.273608 -0.037179 -0.159303 
里 0.574128 -0.437482 0.279335 0.352114 -0.411058 0.026608 -0.067416 0.265767 -0.429661 0.298220 0.075932 0.322372 0.596349 -0.795322 0.132588 -0.344891 1.246777 -0.059672 -0.349695 0.434295 -0.659692 0.367144 0.552246 -0.692226 -0.798085 -1.042311 0.698568 0.346184 0.093930 -1.489358 -0.286982 -0.219413 -0.218958 -0.192614 -0.166243 0.716171 -0.576296 -0.266496 0.343479 -1.000008 0.722120 0.578533 -0.363807 0.140992 1.042591 -0.506120 0.122871 -0.016964 -0.956045 0.787927 
电 0.069479 0.174491 1.042227 0.837930 -0.109337 -2.244238 -0.499983 -1.081674 1.631643 1.850038 0.094816 0.148683 0.642626 -0.167484 -0.083369 -0.767878 0.405497 0.307554 -0.088807 -0.990987 0.883941 0.827997 0.077773 -1.425180 -0.629286 0.699330 1.446115 -0.703079 -0.772767 -0.808345 0.333369 1.405372 2.299506 -1.861881 0.022442 0.692100 0.470512 -0.152412 -0.498136 -2.124353 1.093364 1.189106 -1.365021 -0.021726 -1.006752 -1.573280 -0.197217 -0.768474 0.196526 -0.599789 
金 -1.157770 0.233271 0.006401 -0.343837 0.515666 0.530080 -0.723564 -0.669194 0.710609 -0.423268 -1.131927 0.225136 0.330920 -0.790306 0.296996 1.359193 0.314100 -0.552518 1.386879 0.245741 -0.383226 2.141855 0.909402 1.030449 -1.273794 -0.740640 1.950324 -0.590398 -0.596121 0.983114 -0.653981 -1.570118 0.786434 -0.484811 2.042447 -0.133003 -0.175235 0.267375 -1.273534 0.110267 -0.382858 -0.053864 1.092094 0.054721 0.622183 -0.497734 0.013278 -0.705558 -0.255836 -0.310292 
因 -0.116414 -0.193484 -0.586350 -0.826716 0.554808 -0.463300 0.896208 0.001520 -0.158938 1.081214 -0.340829 0.363349 -0.347122 -0.096781 0.258709 0.342874 0.022911 0.335989 -0.044831 -0.643568 -1.241250 -0.397951 -0.511297 0.359837 0.485571 -0.823936 -0.054528 1.323321 0.354726 -0.153609 -1.009809 -0.029681 -0.999590 -0.499279 -0.001001 -1.463893 -0.122835 0.480015 -0.559606 0.224931 -0.038786 -0.486840 -0.119903 -0.189328 -0.849698 0.884077 -0.167931 -0.020350 0.484102 0.160439 
手 0.911587 0.611727 1.142174 -0.117298 -0.702905 -0.121843 -0.657600 -0.876266 0.405462 0.385660 -0.428905 0.512083 -0.320686 -0.462677 1.466996 0.454004 -0.314570 1.189938 -0.911107 0.748045 0.314760 0.307520 1.051197 0.836529 -1.495708 0.854917 0.484307 1.148932 0.927894 -0.011962 0.511412 0.711222 0.234465 -0.959137 -0.592799 -0.969814 0.664526 0.548583 -0.955771 -1.215154 0.461043 0.854685 -0.420824 -0.546350 -1.188395 -0.887221 0.878770 0.308412 -1.323126 0.888100 
比 -1.188136 -0.356855 -0.333870 -0.418819 -0.040553 0.884156 -0.682996 -0.320657 -0.372207 0.565030 0.175590 1.414247 -1.002699 0.030193 -0.292645 -0.111463 0.202438 0.078639 -0.764014 -0.712402 -2.511671 -0.151483 1.946761 -0.025797 0.898059 0.236099 -0.261938 0.590579 -0.621805 0.629310 -0.792198 0.043710 1.518784 0.297147 -0.528127 -1.042633 -0.689712 -0.074449 1.071324 1.164209 1.103442 -0.736449 0.205658 -0.672430 0.148428 -0.296307 0.362321 -0.420646 -0.604748 0.524560 
期 -0.351021 0.894831 0.419070 -0.665600 -0.205219 -0.626694 0.015554 -0.455503 -1.528964 -0.341204 -0.491583 0.610347 -0.129528 0.850009 0.208367 0.957300 -0.026679 0.161186 0.408706 -0.716060 -1.112453 -0.107774 0.105600 -0.258644 0.438462 -0.250407 0.461434 -0.967624 0.026935 0.274907 -0.380783 0.755101 -0.053187 0.762349 -0.400117 0.332130 -0.277841 -0.183170 0.532681 0.358660 1.407416 0.499837 -0.153344 0.760227 -0.466801 1.006343 -0.552580 -0.787105 -0.954947 -0.909480 
明 0.000739 -0.737244 0.421638 0.874485 0.365662 0.285400 -0.642786 0.615521 -0.962165 -0.012416 0.597286 -0.646753 -0.736120 1.157556 -1.209181 -0.076892 -0.714306 0.465970 0.303744 0.172008 -0.717434 -0.099003 0.516553 -0.829870 0.734710 -0.940412 -0.788705 0.013528 0.887433 -0.275975 0.793517 -0.551684 1.128548 0.279709 -1.359510 -0.122131 1.566496 0.485897 0.044070 0.918059 0.013995 -0.309676 0.557194 -0.741576 -1.041641 0.814759 -0.054025 0.206889 0.277756 -0.032979 
去 -0.193254 0.075895 0.408445 0.260716 -0.411079 0.147238 0.686658 0.161336 -0.555626 0.423230 -0.653508 -0.474647 -1.007014 -0.055173 0.049114 0.397613 0.657061 -0.366665 -0.591767 -0.081878 -0.926528 -0.400473 0.231895 0.184148 -0.331561 -0.068054 -0.247452 0.598142 -0.241070 -0.855683 0.033036 -0.347578 -0.405058 0.389643 0.431055 0.229307 0.827808 0.546711 0.741890 -0.578127 0.658955 1.089015 -0.699860 0.859058 0.885853 0.736977 -0.325162 -0.507654 -0.683697 1.187939 
品 -1.359192 0.304351 -1.149016 1.214497 -0.373288 0.158204 -0.171827 -0.385682 0.128504 0.108976 -0.266400 2.132329 0.272960 -1.403048 -1.893688 0.476352 0.171573 -0.058351 0.428148 0.541154 -0.155890 1.069700 -0.242239 0.103513 -0.035706 -0.494169 1.640386 -2.070018 -0.580080 2.073735 0.631813 -0.894476 1.218579 -1.197508 -2.399389 0.266667 -1.024064 -0.255731 0.084187 1.114450 -1.092084 0.309585 -0.015768 -1.911556 -0.494545 1.340742 -0.156427 1.127526 0.580915 -0.866262 
. -2.547779 -0.384721 1.365765 -1.986312 2.403784 1.496866 -0.345269 -0.662716 0.959791 0.006209 -1.368180 0.411906 1.488831 -0.829096 -1.104629 -0.394018 -1.199727 0.858568 -0.515042 0.350180 -1.349787 0.587819 2.115244 -1.103070 0.960415 -0.627527 0.242431 -0.537662 -1.351207 0.121196 -1.065295 0.291301 1.137538 0.109329 1.237409 0.111261 -1.262629 -0.307621 0.789605 0.728307 1.442832 -1.805416 -1.394837 1.096488 2.689954 -1.708197 -0.023834 -0.094808 0.088761 -1.080420 
路 -0.403145 -1.569981 0.201203 0.017105 -0.942586 -0.390137 -0.761986 -0.414618 -0.194804 -1.748057 -0.588324 -0.056582 -0.081355 0.050267 -0.421022 -1.198361 -0.586447 -0.716040 -1.281642 0.333658 0.725847 0.077734 0.455441 -2.144975 -2.050315 -0.082159 -0.497331 0.992158 -0.719260 -1.083266 -1.135289 -0.332014 0.951196 -0.458902 -0.166088 0.056732 -0.768025 -1.284117 1.079250 -0.908164 0.609114 -0.528047 1.451409 1.286370 -1.394338 0.236025 0.038125 0.991062 -1.346089 0.100131 
设 -1.136934 -2.489241 0.855622 0.614419 -0.477204 1.047466 -1.657008 1.096572 -0.330424 -0.158334 0.081652 -0.802297 1.258161 -0.492597 -1.404035 -2.003047 -0.208970 0.209594 -0.826287 -0.141282 2.411374 -0.404436 1.337248 -0.801264 0.218704 0.288272 -0.617323 -1.568273 1.030696 0.280099 0.058085 -0.505173 0.083147 -0.367345 0.851417 0.823565 -0.889926 -0.691027 -1.655198 0.061200 1.085006 1.077967 0.960297 -0.119759 -0.346546 1.846489 -0.139269 1.227390 0.138522 -0.807274 
看 0.544175 0.373806 0.778325 -0.074175 0.178928 -0.924394 0.195126 0.716029 -0.542906 0.994127 0.119261 -0.441926 -0.488714 0.846446 -0.135493 -0.339058 1.199543 0.113518 -0.269734 0.300471 -0.436334 0.710941 0.780947 -0.556016 -0.153657 -0.913471 0.260042 0.775230 -0.045609 -1.216185 0.507968 -1.132529 0.165507 -0.349437 -0.740825 -0.439259 0.241667 -0.205395 1.005841 -1.100318 -0.235262 0.216383 -0.371165 0.205425 -0.299080 0.146123 0.264558 -0.302060 -0.465527 1.689365 
意 0.846118 0.053356 0.488908 0.503064 0.817445 0.393011 1.033046 0.915130 -1.477576 1.712581 2.061256 2.385479 0.395203 1.400057 0.039001 -0.555397 -1.118248 -0.424657 0.367599 1.064428 0.007485 -0.108065 0.843791 1.282734 0.271686 1.024837 -0.620643 0.194117 -0.163347 -1.299350 -0.149023 -0.855352 0.156850 0.502048 0.020262 -0.441363 -0.281222 -0.224400 -0.269224 0.561529 -0.947761 0.125124 0.402764 0.651694 0.802570 0.275512 0.449770 0.248526 1.103997 0.120521 
没 0.609938 -0.492902 0.501016 0.358860 -0.180831 -0.602432 0.596960 -0.114377 -0.628614 1.027858 0.335656 0.170237 -0.222822 -0.130537 0.425745 0.146322 0.446063 0.248122 0.673853 0.200120 -0.882676 -0.519314 0.958493 0.039412 0.069011 -0.777752 0.026082 0.646907 0.581841 -1.019083 0.667019 -0.972355 -0.512139 -0.498336 -0.945577 -0.834646 -0.366902 1.241091 0.045596 -1.143386 -0.089516 0.185992 0.538761 0.381092 0.125361 0.940698 -0.032308 0.107319 -0.052634 1.154662 
门 -1.049510 -0.764991 1.049231 0.608015 -0.364530 -0.005095 -0.904895 1.017857 -0.106823 -0.533181 -0.399240 0.096941 -0.287513 -0.873910 0.285379 -0.451914 0.038701 -1.869711 -0.361661 -0.491953 0.757268 0.002312 -0.750612 -0.137079 -1.027338 -0.059258 1.492764 0.739549 0.144883 -0.748108 -0.071664 -0.181489 0.688224 0.186029 0.208719 0.020390 0.717274 -0.854001 -0.865045 -0.757490 0.217775 0.281044 -0.774916 0.205734 -0.134770 0.578226 1.461314 1.006202 -0.288079 0.224436 
物 -0.264399 -0.410589 -1.806158 0.452694 0.181244 -0.225558 -1.065357 -0.156203 -0.703812 0.374989 -0.708766 0.432704 0.406344 -1.048985 -0.891131 -0.461392 0.127027 0.280580 1.045346 0.775661 0.212257 0.816493 -0.331841 0.089390 -0.611396 -0.443063 -0.358678 -0.799256 -0.258408 2.034007 -0.086749 0.569709 0.019065 -1.300425 -1.328282 -0.730467 -1.607202 -0.264274 0.095725 0.362572 -1.260928 0.171244 -0.694606 -1.698559 0.185443 1.812961 0.587529 0.258633 0.019451 -0.341246 
第 -0.594276 0.525138 -0.841127 -0.824217 -1.325070 1.023737 0.011795 0.189624 -1.359986 -0.588328 -0.623766 0.695566 0.478784 -0.378364 0.125373 1.907734 0.021874 -0.265082 0.372694 -0.718778 -0.674519 -0.871653 0.616250 0.242076 0.664911 1.309775 0.614427 -0.442298 0.255977 -0.897262 -0.623849 1.229947 0.834790 0.946453 0.058269 -0.292959 2.227224 -1.570239 -0.331190 -0.242072 0.903979 0.929677 -1.454179 -0.104187 -1.064431 -1.100274 -0.770014 0.572762 -0.705297 -0.987588 
题 -0.850329 -1.701100 0.899882 -0.716298 0.091414 -0.230333 1.819623 1.221335 -1.002524 -0.271260 -0.765064 0.668467 -0.017906 1.993406 -0.918744 -0.696694 -0.185655 0.161985 0.180063 0.434986 -0.702270 0.687745 0.035724 -0.215466 1.466267 1.694678 0.206515 0.726526 -1.146891 -0.990525 0.010308 -1.113739 0.215187 -0.626126 0.312387 -0.777732 -0.051969 -1.580783 -0.372343 -0.884617 -2.855389 -0.273990 0.651553 -1.117141 -2.014174 1.724680 0.778922 0.130522 -1.233173 0.362459 
些 -0.297862 -0.188509 -0.423749 0.408314 0.054661 -0.792890 0.304631 0.534345 -0.955472 0.755257 -0.302825 0.527473 -0.259099 0.098418 0.116409 0.396239 1.287359 0.191314 0.276559 0.552420 -0.876367 -0.405039 0.543582 0.571253 0.128616 -0.079140 0.839448 0.494725 0.374352 -0.375324 0.227539 -0.723048 -0.557597 -0.800520 -0.507732 -0.817080 -0.771336 0.642554 0.066298 -0.459242 -0.508060 0.267705 -0.073422 -0.416054 -0.048150 1.050376 0.686779 -0.005795 0.074501 0.718410 
院 -0.603323 -1.148191 0.733499 0.190557 0.322668 1.058364 -1.604200 0.872048 0.103401 -1.006754 -0.685669 -0.332293 -1.265761 0.189317 -1.212843 1.273761 -0.197669 -1.237503 0.409542 -3.115422 -0.056074 -0.896933 -1.513981 -0.415081 -0.967762 -1.556867 0.835457 0.652902 -1.065999 0.180089 -0.533340 0.676987 -0.920186 0.546347 0.851729 0.810070 1.269064 0.434689 -1.428662 -0.564037 -1.610943 0.836453 -3.180319 -0.281182 0.015627 0.832831 -0.325881 0.182733 0.483703 -0.120111 
如 -0.154828 -1.018732 0.309533 -0.996575 0.385277 -0.780647 0.128915 -0.159941 -0.839146 0.838439 -0.650129 0.251425 0.012450 1.850902 0.350993 0.724430 0.711860 1.450016 0.925952 0.978464 -0.851499 -0.022887 0.770786 -0.377530 -0.104280 0.491658 0.583406 0.155378 0.250077 -0.164855 0.760632 0.078205 0.078880 0.100165 -1.676622 0.547707 -0.263517 1.326442 0.011767 0.357203 0.863580 -0.769613 0.502805 0.099916 -0.508906 1.339108 -0.169114 0.055345 0.227973 -0.288825 
量 -0.844239 -0.845259 0.692055 -0.208510 0.701589 0.006749 -0.932650 -0.861197 -1.092950 0.978886 -0.240209 1.887663 -0.331184 -0.083181 -0.685160 -1.392354 -0.550254 0.034470 0.345378 -0.495863 0.166684 0.143195 1.290499 -1.213656 0.733743 -0.216907 0.263785 -1.637303 0.894745 1.731228 -1.239508 -0.135312 0.837684 -0.109881 -0.728547 -1.115375 -1.319852 0.096136 0.204884 0.917693 0.938867 -0.329878 -0.290978 -0.838338 -0.113065 0.087877 0.112122 -0.138137 0.029697 -0.400978 
委 0.982679 -0.709171 -0.090844 0.950209 1.702299 0.295723 0.051645 -0.563213 -0.106471 -1.054720 -0.173344 -0.430244 -1.364054 -1.140548 -1.397067 1.511330 -0.822582 -2.893913 -1.537552 -1.080254 2.683866 -0.650166 -0.122709 -0.513490 1.706461 0.442450 2.053466 0.755184 -1.746361 -0.966679 0.126994 2.014616 0.102317 1.604398 0.543396 0.688930 2.927614 -1.520321 -1.084851 -0.292701 -1.352942 0.017942 -0.265562 2.250839 -0.677287 0.186680 1.170042 0.991384 1.314987 -1.105990 
更 0.505314 0.009556 0.393033 -0.219648 0.506065 0.307572 0.262319 -0.156988 -0.761825 0.994840 1.905700 0.247841 -0.046996 -0.299915 -0.153181 -0.500359 -0.494023 0.139461 -0.247405 0.350562 0.208118 -0.060946 1.297893 0.751960 -0.055781 0.855755 0.072151 -1.090167 0.023938 0.687351 0.069769 -1.137120 -0.006812 -0.505398 -0.180334 -0.121010 -0.463825 0.118900 0.393252 0.234964 0.472411 -0.019524 0.630303 -0.293642 0.010821 0.942810 0.920641 -0.812446 -0.095345 0.099484 
南 -0.263124 -2.278442 -1.141203 -0.668748 0.669409 -0.464041 0.337587 -0.032728 0.455450 -1.882406 -0.625233 -1.206130 -1.039285 -0.333583 -1.371610 0.340575 -0.145521 -1.126220 0.360005 -1.736507 0.187863 1.173414 -0.141900 -0.985290 -1.644587 0.423657 -0.517755 0.018009 -0.982282 -1.502890 -1.510248 1.254693 -0.447328 0.457200 0.772161 0.045187 0.798814 -1.564606 -0.524259 0.102162 1.006827 0.357243 -0.589191 0.515943 0.710017 0.228327 -0.368914 0.116183 -0.026384 -1.081654 
管 -1.568951 -0.468671 1.523990 0.697481 -0.025918 0.141911 -1.379670 0.089378 -0.187549 -1.090882 0.206267 0.381243 -1.693815 -0.688337 -1.731635 -1.323703 -0.415050 -1.104334 0.658326 -0.831470 1.613331 -0.160882 -0.199127 0.510906 0.179493 0.281897 2.871035 -0.432293 -0.303646 -0.217690 -0.018865 -0.544934 0.390214 -1.146109 0.823985 0.516178 -0.873990 -0.234474 -1.769953 0.580348 0.515087 -0.200693 0.351028 -0.012040 -0.881170 0.769997 1.113598 0.197894 -0.088011 -1.062773 
然 -0.984309 0.986112 0.991461 -2.006360 -0.186558 -0.191197 0.331505 0.665602 -0.257408 -0.526244 1.629042 0.681809 -2.181224 0.601670 -0.126273 0.285109 1.253844 0.144407 0.183577 -1.289865 -0.071722 0.201627 0.159819 -0.196657 0.064260 -1.714392 1.413815 0.555911 1.475482 -2.355238 -0.636401 0.686843 -0.663449 -0.557206 -1.544712 -0.105483 -0.304577 1.023148 1.055573 0.614777 0.251926 0.161473 2.537335 -0.577472 0.778508 1.356951 -2.455764 -0.895601 -0.353455 0.967391 
调 -0.045339 -0.037483 2.242584 0.683561 0.914814 0.396028 -0.027966 0.178256 -0.294719 -0.550287 -0.567742 -0.295467 -0.216628 0.719335 -1.636939 0.767201 -1.079940 -0.017904 -0.383145 -1.199316 0.792921 -0.043737 -0.601608 0.898593 0.840998 0.680716 -0.264348 -1.659745 -0.180773 -0.094221 -1.081864 -1.146665 0.225712 0.735083 -0.032472 -0.659703 -0.652917 0.502763 -0.594036 -0.716791 0.358594 -0.729437 -0.169711 0.041246 -1.447100 -0.043839 1.466731 1.103994 -0.251656 -0.560238 
城 -1.317860 -2.280782 0.206767 0.423381 -0.276929 0.450581 0.520139 0.536980 1.045385 -0.797366 0.893564 1.073557 0.985393 -0.328469 -1.406765 -0.621876 0.314140 -0.855691 -0.911606 -1.492735 0.113199 0.568053 0.548105 -1.237815 -0.027490 -0.244793 0.593137 0.087679 -1.095566 0.478974 -2.208058 -1.009941 0.921811 0.373046 1.375934 1.727264 0.552666 -1.228272 0.567892 0.231739 1.157192 0.129854 0.509036 0.002538 0.302756 0.541689 0.343111 0.302230 0.424782 0.023363 
北 -1.018217 -2.203121 -0.633908 -0.364322 0.980909 -0.842552 -0.969279 -0.562620 -0.830177 -1.064951 -1.030111 -1.622968 0.090951 0.299717 -1.850855 1.060105 -0.189401 -1.354300 0.730516 -2.460825 -0.265296 0.876303 -0.411907 -0.692139 -1.096733 -0.190105 -0.258055 0.471359 -0.688032 -1.305008 -1.986564 2.183169 0.325310 -0.122693 -0.350091 0.772872 0.543258 -0.881656 -0.140132 0.697489 0.450991 1.116211 -0.639135 0.725111 -0.063024 -1.143233 0.142410 0.714689 0.602363 -0.228534 
身 1.305807 0.125551 0.351917 -0.495691 0.496975 0.349389 0.616269 -0.183458 0.012164 0.975846 0.557166 1.923618 -0.578924 0.432906 -0.259548 -0.339559 -1.421195 0.650823 -0.489924 -0.401618 -0.141713 0.589273 -0.176297 0.417269 -1.475175 -0.831530 0.161858 1.082049 0.095542 0.011504 1.148211 0.611576 -0.548261 0.199442 -1.669875 -1.005180 0.711865 -0.533863 0.197486 -1.041145 0.729727 0.819352 0.326236 -1.162368 0.033177 0.468860 -0.581760 -1.102773 0.150687 0.132054 
社 -0.627070 -0.159984 -0.582306 -0.088580 0.684168 0.616993 -0.597252 0.356657 -0.469338 0.641387 1.312383 -0.519042 0.290858 0.869818 -1.089394 0.396952 -1.012931 -1.530653 0.562463 0.493450 1.528791 0.075767 0.031829 0.187736 0.148074 0.507271 0.877678 -2.450625 -1.223582 0.495573 -1.155217 -0.921149 0.363621 0.166587 1.021184 1.336271 0.238648 -0.097295 -0.436768 -0.337572 -0.043038 -0.323395 -1.135629 0.147105 -0.888512 2.018086 0.303735 -0.022517 1.203163 -0.632062 
